{"learner":{"attributes":{"best_iteration":"99","best_ntree_limit":"100","scikit_learn":"{\"use_label_encoder\": null, \"n_estimators\": 100, \"objective\": \"binary:logistic\", \"max_depth\": null, \"max_leaves\": null, \"max_bin\": null, \"grow_policy\": null, \"learning_rate\": null, \"verbosity\": null, \"booster\": null, \"tree_method\": null, \"gamma\": null, \"min_child_weight\": null, \"max_delta_step\": null, \"subsample\": null, \"sampling_method\": null, \"colsample_bytree\": null, \"colsample_bylevel\": null, \"colsample_bynode\": null, \"reg_alpha\": null, \"reg_lambda\": null, \"scale_pos_weight\": null, \"base_score\": null, \"missing\": NaN, \"num_parallel_tree\": null, \"random_state\": 24, \"n_jobs\": null, \"monotone_constraints\": null, \"interaction_constraints\": null, \"importance_type\": null, \"gpu_id\": null, \"validate_parameters\": null, \"predictor\": null, \"enable_categorical\": false, \"feature_types\": null, \"max_cat_to_onehot\": null, \"max_cat_threshold\": null, \"eval_metric\": null, \"early_stopping_rounds\": null, \"callbacks\": null, \"classes_\": [0, 1], \"n_classes_\": 2, \"_estimator_type\": \"classifier\"}"},"feature_names":["tenure","montant","frequence_rech","arpu_segment","frequence","data_volume","regularity","freq_top_pack"],"feature_types":["int","float","float","float","float","float","float","float"],"gradient_booster":{"model":{"gbtree_model_param":{"num_parallel_tree":"1","num_trees":"100","size_leaf_vector":"0"},"tree_info":[0,0,0,0,0,0,0,0,0,0,0,0,0,0,0,0,0,0,0,0,0,0,0,0,0,0,0,0,0,0,0,0,0,0,0,0,0,0,0,0,0,0,0,0,0,0,0,0,0,0,0,0,0,0,0,0,0,0,0,0,0,0,0,0,0,0,0,0,0,0,0,0,0,0,0,0,0,0,0,0,0,0,0,0,0,0,0,0,0,0,0,0,0,0,0,0,0,0,0,0],"trees":[{"base_weights":[2.3322718E-6,1.1498833E0,-1.4308522E0,1.4406135E0,4.2650998E-1,-7.413944E-1,-1.7592881E0,1.5705627E0,1.1030788E0,-2.5386015E-1,6.9967717E-1,-1.1029088E0,-1.4347517E-1,-1.4841219E0,-1.8840185E0,1.1078455E0,1.6038985E0,5.3119636E-1,1.20254E0,-6.434828E-2,-5.270397E-1,8.525554E-1,4.72132E-1,-1.165181E0,-2.1472514E-1,5.3547524E-2,-3.8097498E-1,-1.6663592E0,-1.0340621E0,-1.7899187E0,-1.9429224E0,1.237706E0,9.7486204E-1,1.6749018E0,1.461787E0,2.2212562E-1,6.8258876E-1,7.9481643E-1,1.2616885E0,1.475836E-1,-2.627382E-1,-2.892002E-1,-8.2132363E-1,5.967253E-1,9.0491086E-1,3.602812E-2,5.2953947E-1,-8.8564736E-1,-1.3644129E0,3.1439394E-1,-3.546526E-1,-3.331769E-1,8.8951916E-2,-7.1346706E-1,-3.3010557E-1,-1.7258065E0,-1.1675094E0,-7.402174E-1,-1.2986525E0,-1.8885368E0,-1.6510642E0,-1.9061528E0,-1.9644302E0,1.4242861E0,1.1034199E0,1.090588E0,8.6463296E-1,1.2435374E0,1.6811951E0,9.072427E-1,1.5049632E0,2.4366166E-1,-4.3243244E-1,1.9915612E0,5.351512E-1,9.04E-1,6.0162604E-1,1.3238072E0,1.1680651E0,-1.3503727E-1,3.5283193E-1,-4.3553838E-1,-7.43338E-2,-6.346783E-1,-4.4718582E-2,-8.9107746E-1,5.5172414E-1,6.764844E-1,4.512091E-1,6.001984E-1,9.3259215E-1,3.0278063E-1,-1.6220352E-1,6.203816E-1,3.9529884E-1,-6.508276E-1,-1.229146E0,-1.2249457E0,-1.5869592E0,-5.822785E-1,4.7006652E-1,-7.5708157E-1,-1.8825194E-1,-0E0,-8.953342E-1,2.1083191E-1,-2.7096192E-3,-1.900161E-1,-8.616092E-1,1.8857143E0,-3.3854938E-1,-1.6058297E0,-1.7749437E0,-8.9171976E-1,-1.401632E0,-1.2538524E0,-6.753644E-1,-1.5038229E0,-7.8141135E-1,-1.9087867E0,-1.6386416E0,-1.112745E0,-1.7406423E0,-1.9189098E0,-1.6760759E0,-1.9754165E0,-1.9291672E0],"categories":[],"categories_nodes":[],"categories_segments":[],"categories_sizes":[],"default_left":[1,1,1,1,1,1,1,1,1,1,1,1,1,1,1,1,1,1,1,1,1,1,1,1,1,1,1,1,1,1,1,1,1,1,1,1,1,1,1,1,1,1,1,1,1,1,1,1,1,1,1,1,1,1,1,1,1,1,1,1,1,1,1,0,0,0,0,0,0,0,0,0,0,0,0,0,0,0,0,0,0,0,0,0,0,0,0,0,0,0,0,0,0,0,0,0,0,0,0,0,0,0,0,0,0,0,0,0,0,0,0,0,0,0,0,0,0,0,0,0,0,0,0,0,0,0,0],"id":0,"left_children":[1,3,5,7,9,11,13,15,17,19,21,23,25,27,29,31,33,35,37,39,41,43,45,47,49,51,53,55,57,59,61,63,65,67,69,71,73,75,77,79,81,83,85,87,89,91,93,95,97,99,101,103,105,107,109,111,113,115,117,119,121,123,125,-1,-1,-1,-1,-1,-1,-1,-1,-1,-1,-1,-1,-1,-1,-1,-1,-1,-1,-1,-1,-1,-1,-1,-1,-1,-1,-1,-1,-1,-1,-1,-1,-1,-1,-1,-1,-1,-1,-1,-1,-1,-1,-1,-1,-1,-1,-1,-1,-1,-1,-1,-1,-1,-1,-1,-1,-1,-1,-1,-1,-1,-1,-1,-1],"loss_changes":[3.5272903E5,2.4996953E4,2.162889E4,3.7171719E3,6.3336904E3,6.6624336E3,2.2178125E3,9.4246875E2,1.340123E3,5.0541693E2,8.454541E2,1.0621699E3,5.435311E2,1.6538086E3,2.4326562E2,6.989111E1,5.737031E2,1.6333594E2,4.8322266E2,2.4245009E2,2.7964453E2,1.9424707E2,2.446726E2,9.984629E2,9.338125E1,8.696536E1,8.884454E1,4.240039E2,4.515542E2,2.3173047E2,1.7898438E1,5.0524414E1,2.5063965E1,1.0125781E2,4.543125E2,1.6319962E1,4.5145178E2,5.3170044E1,1.0041992E2,1.6178697E2,9.692848E1,1.8688835E2,1.7161816E2,2.8402771E1,1.0125098E2,6.0225174E1,1.0507739E2,6.019341E2,3.232871E2,3.712476E1,6.660428E1,9.978291E1,6.4994774E1,5.39628E1,8.6138214E1,7.280859E1,9.771753E1,9.109082E1,3.2369238E2,4.758203E1,3.4189453E2,2.6527344E1,2.8671875E0,0E0,0E0,0E0,0E0,0E0,0E0,0E0,0E0,0E0,0E0,0E0,0E0,0E0,0E0,0E0,0E0,0E0,0E0,0E0,0E0,0E0,0E0,0E0,0E0,0E0,0E0,0E0,0E0,0E0,0E0,0E0,0E0,0E0,0E0,0E0,0E0,0E0,0E0,0E0,0E0,0E0,0E0,0E0,0E0,0E0,0E0,0E0,0E0,0E0,0E0,0E0,0E0,0E0,0E0,0E0,0E0,0E0,0E0,0E0,0E0,0E0,0E0,0E0,0E0],"parents":[2147483647,0,0,1,1,2,2,3,3,4,4,5,5,6,6,7,7,8,8,9,9,10,10,11,11,12,12,13,13,14,14,15,15,16,16,17,17,18,18,19,19,20,20,21,21,22,22,23,23,24,24,25,25,26,26,27,27,28,28,29,29,30,30,31,31,32,32,33,33,34,34,35,35,36,36,37,37,38,38,39,39,40,40,41,41,42,42,43,43,44,44,45,45,46,46,47,47,48,48,49,49,50,50,51,51,52,52,53,53,54,54,55,55,56,56,57,57,58,58,59,59,60,60,61,61,62,62],"right_children":[2,4,6,8,10,12,14,16,18,20,22,24,26,28,30,32,34,36,38,40,42,44,46,48,50,52,54,56,58,60,62,64,66,68,70,72,74,76,78,80,82,84,86,88,90,92,94,96,98,100,102,104,106,108,110,112,114,116,118,120,122,124,126,-1,-1,-1,-1,-1,-1,-1,-1,-1,-1,-1,-1,-1,-1,-1,-1,-1,-1,-1,-1,-1,-1,-1,-1,-1,-1,-1,-1,-1,-1,-1,-1,-1,-1,-1,-1,-1,-1,-1,-1,-1,-1,-1,-1,-1,-1,-1,-1,-1,-1,-1,-1,-1,-1,-1,-1,-1,-1,-1,-1,-1,-1,-1,-1],"split_conditions":[1.7213115E-1,5.7377048E-2,4.3442625E-1,2.4590163E-2,5.2751414E-3,1.1656664E-2,6.803279E-1,2.8504683E-3,5.392089E-2,1.22950815E-1,1.0655738E-1,3.013963E-3,2.7049178E-1,1.16562275E-2,8.770492E-1,8.196721E-3,8.196721E-3,5.106071E-7,2.6589488E-3,3.0119494E-3,3.0139452E-3,6.3739973E-4,1.0005377E-1,2.7049178E-1,2.3770492E-1,9.426681E-3,1.2229402E-1,3.102256E-3,1.1867799E-2,1.1657277E-2,9.590164E-1,8.90294E-7,3.5770915E-6,3.9600986E-3,3.861728E-2,7.4357977E-3,1.1108542E-2,2.2813994E-5,4.0983606E-2,1.4750315E-6,1.1136151E-2,2.932428E-6,3.0148318E-3,5.3216963E-6,1.22230366E-1,1.1098366E-2,1.3934426E-1,3.0135373E-3,3.0138264E-3,8.417951E-6,1.9685137E-3,1.1061044E-2,2.0491803E-1,3.921591E-5,1.3318932E-1,5E-1,5.491803E-1,9.587646E-3,3.0169946E-3,4.975467E-3,1.17583405E-2,1.3391368E-2,7.387261E-3,4.2728585E-1,3.31026E-1,3.271764E-1,2.593899E-1,3.7306124E-1,5.043586E-1,2.7217284E-1,4.5148897E-1,7.30985E-2,-1.2972973E-1,5.974684E-1,1.6054536E-1,2.712E-1,1.8048781E-1,3.971422E-1,3.5041952E-1,-4.0511183E-2,1.0584959E-1,-1.3066152E-1,-2.2300141E-2,-1.904035E-1,-1.3415575E-2,-2.6732326E-1,1.6551724E-1,2.0294534E-1,1.3536273E-1,1.8005952E-1,2.7977765E-1,9.083419E-2,-4.8661057E-2,1.8611449E-1,1.18589655E-1,-1.9524829E-1,-3.687438E-1,-3.674837E-1,-4.7608778E-1,-1.7468356E-1,1.4101996E-1,-2.2712448E-1,-5.6475583E-2,-0E0,-2.6860026E-1,6.324957E-2,-8.128858E-4,-5.7004835E-2,-2.5848278E-1,5.657143E-1,-1.0156482E-1,-4.8174894E-1,-5.3248316E-1,-2.6751593E-1,-4.204896E-1,-3.7615573E-1,-2.0260932E-1,-4.511469E-1,-2.3442341E-1,-5.72636E-1,-4.915925E-1,-3.3382353E-1,-5.221927E-1,-5.75673E-1,-5.028228E-1,-5.9262496E-1,-5.787502E-1],"split_indices":[6,6,6,6,1,1,6,5,2,6,6,5,6,1,6,6,6,4,5,5,5,5,4,6,6,3,4,5,1,1,6,5,5,7,2,2,4,5,6,7,4,7,5,5,4,4,6,5,5,7,7,4,6,3,4,6,6,3,5,5,1,5,5,0,0,0,0,0,0,0,0,0,0,0,0,0,0,0,0,0,0,0,0,0,0,0,0,0,0,0,0,0,0,0,0,0,0,0,0,0,0,0,0,0,0,0,0,0,0,0,0,0,0,0,0,0,0,0,0,0,0,0,0,0,0,0,0],"split_type":[0,0,0,0,0,0,0,0,0,0,0,0,0,0,0,0,0,0,0,0,0,0,0,0,0,0,0,0,0,0,0,0,0,0,0,0,0,0,0,0,0,0,0,0,0,0,0,0,0,0,0,0,0,0,0,0,0,0,0,0,0,0,0,0,0,0,0,0,0,0,0,0,0,0,0,0,0,0,0,0,0,0,0,0,0,0,0,0,0,0,0,0,0,0,0,0,0,0,0,0,0,0,0,0,0,0,0,0,0,0,0,0,0,0,0,0,0,0,0,0,0,0,0,0,0,0,0],"sum_hessian":[2.1438225E5,1.188615E5,9.552075E4,8.478475E4,3.407675E4,3.0822E4,6.469875E4,6.1214E4,2.357075E4,9.76225E3,2.43145E4,1.920775E4,1.161425E4,2.0184E4,4.451475E4,4.116E3,5.7098E4,3.493E3,2.007775E4,5.7645E3,3.99775E3,1.454175E4,9.77275E3,1.7949E4,1.25875E3,6.3485E3,5.26575E3,1.436475E4,5.81925E3,1.71495E4,2.736525E4,2.07825E3,2.03775E3,3.80675E4,1.90305E4,1.14925E3,2.34375E3,2.5455E3,1.753225E4,2.78725E3,2.97725E3,2.212E3,1.78575E3,2.4725E3,1.206925E4,1.137E3,8.63575E3,7.4715E3,1.04775E4,2.63E2,9.9575E2,5.3175E2,5.81675E3,6.97E2,4.56875E3,1.2833E4,1.53175E3,2.759E3,3.06025E3,1.002025E4,7.12925E3,1.01325E4,1.723275E4,8.6575E2,1.2125E3,9.8975E2,1.048E3,5.5025E2,3.751725E4,1.37625E3,1.765425E4,1.11325E3,3.6E1,2.36E2,2.10775E3,1.624E3,9.215E2,1.05315E4,7.00075E3,1.17275E3,1.6145E3,1.55225E3,1.425E3,9.16E2,1.296E3,1.69975E3,8.6E1,1.59475E3,8.7775E2,1.007E3,1.106225E4,4.845E2,6.525E2,5.14825E3,3.4875E3,4.4395E3,3.032E3,6.445E3,4.0325E3,3.85E1,2.245E2,2.9025E2,7.055E2,3.345E2,1.9725E2,2.49625E3,3.3205E3,1.5425E2,5.4275E2,1.65E1,4.55225E3,3.7385E3,9.0945E3,7.055E2,8.2625E2,3.0725E2,2.45175E3,2.18975E3,8.705E2,9.263E3,7.5725E2,1.019E3,6.11025E3,9.59325E3,5.3925E2,1.309725E4,4.1355E3],"tree_param":{"num_deleted":"0","num_feature":"8","num_nodes":"127","size_leaf_vector":"0"}},{"base_weights":[-1.2746442E-3,8.1825477E-1,-1.0975949E0,1.0662538E0,2.6980639E-1,-6.3516665E-1,-1.3750843E0,1.1717818E0,7.992193E-1,-2.0994407E-1,4.761268E-1,-8.8535136E-1,-1.818344E-1,-1.2009174E0,-1.4649143E0,8.010051E-1,1.1992519E0,3.4633264E-1,8.705E-1,1.0742885E-1,-3.2744774E-1,5.8276796E-1,2.4725576E-1,-6.68219E-1,-1.0365056E0,-2.276439E-2,-3.631766E-1,-1.3275565E0,-9.252534E-1,-1.398377E0,-1.5002984E0,9.2278373E-1,7.150147E-1,1.2590871E0,1.081202E0,1.5568602E-1,4.5753464E-1,5.566568E-1,9.1245306E-1,-1.3115503E-1,2.1781401E-1,-1.630441E-1,-5.210485E-1,7.227281E-1,5.106303E-1,-6.518022E-2,2.873894E-1,-9.720022E-1,-5.2735037E-1,-1.0960783E0,-4.0471867E-1,-2.9489192E-1,3.6528453E-3,1.9019721E-1,-3.9573434E-1,-1.3691572E0,-1.0279826E0,-6.530624E-1,-1.0745368E0,-1.4331106E0,-1.1598529E0,-1.473284E0,-1.5218188E0,4.7971255E-1,9.7248447E-1,4.858234E-1,7.551109E-1,1.0820351E0,1.270182E0,6.492788E-1,1.1159664E0,2.4255848E-1,6.690434E-2,1.5430634E0,3.2258275E-1,6.403711E-1,3.0520508E-1,6.633999E-1,9.299447E-1,-1.1599895E0,-1.16652004E-1,1.9889624E0,5.3522978E-2,-5.244056E-1,-2.5378842E-2,-5.7067406E-1,4.6399572E-1,5.550066E-1,7.6012313E-1,3.2398242E-1,5.542371E-1,2.2054963E-1,-2.8928804E-1,9.772646E-2,3.4164914E-1,-8.3405274E-1,-1.2032222E0,2.277847E0,-6.721665E-1,-1.0022445E0,-1.2517514E0,4.3790343E-1,-4.682403E-1,7.568717E-1,-4.1408095E-1,9.7728446E-2,-5.3528838E-2,8.207125E-2,6.834876E-1,-6.899858E-1,-3.4376112E-1,-1.3009646E0,-1.4196703E0,-2.9946652E-1,-1.082458E0,1.912801E0,-6.680322E-1,-1.2059802E0,-6.024417E-1,-1.4848409E0,-1.3615985E0,-1.1808488E0,-3.166913E-2,-1.4894226E0,-1.3460362E0,-1.5285697E0,-1.488888E0],"categories":[],"categories_nodes":[],"categories_segments":[],"categories_sizes":[],"default_left":[1,1,1,1,1,1,1,1,1,1,1,1,1,1,1,1,1,1,1,1,1,1,1,1,1,1,1,1,1,1,1,1,1,1,1,1,1,1,1,1,1,1,1,1,1,1,1,1,1,1,1,1,1,1,1,1,1,1,1,1,1,1,1,0,0,0,0,0,0,0,0,0,0,0,0,0,0,0,0,0,0,0,0,0,0,0,0,0,0,0,0,0,0,0,0,0,0,0,0,0,0,0,0,0,0,0,0,0,0,0,0,0,0,0,0,0,0,0,0,0,0,0,0,0,0,0,0],"id":1,"left_children":[1,3,5,7,9,11,13,15,17,19,21,23,25,27,29,31,33,35,37,39,41,43,45,47,49,51,53,55,57,59,61,63,65,67,69,71,73,75,77,79,81,83,85,87,89,91,93,95,97,99,101,103,105,107,109,111,113,115,117,119,121,123,125,-1,-1,-1,-1,-1,-1,-1,-1,-1,-1,-1,-1,-1,-1,-1,-1,-1,-1,-1,-1,-1,-1,-1,-1,-1,-1,-1,-1,-1,-1,-1,-1,-1,-1,-1,-1,-1,-1,-1,-1,-1,-1,-1,-1,-1,-1,-1,-1,-1,-1,-1,-1,-1,-1,-1,-1,-1,-1,-1,-1,-1,-1,-1,-1],"loss_changes":[1.8418914E5,1.5955711E4,1.12518125E4,2.275461E3,3.6159011E3,3.7300234E3,8.556719E2,5.887578E2,7.384629E2,4.0973788E2,6.2332324E2,6.9486523E2,3.3741345E2,6.4998047E2,8.302344E1,4.1193115E1,3.793828E2,6.5940125E1,2.598213E2,7.8226425E1,2.5511658E2,1.7555615E2,1.0184912E2,3.718296E2,4.697578E2,4.480477E1,9.855255E1,1.5786133E2,2.3803271E2,1.0243945E2,1.146875E1,3.5883545E1,2.1201782E1,6.8890625E1,2.716328E2,8.842663E0,2.8752252E2,4.893396E1,7.535254E1,1.3888275E1,5.907017E2,2.1575882E2,1.8023279E2,3.6733154E1,9.343384E1,5.931087E1,7.4028625E1,8.6881836E1,2.4172595E3,1.6550195E2,5.7908554E1,6.944808E1,3.0570375E1,1.6179495E1,7.871454E1,3.679492E1,6.167737E1,8.130774E1,2.3462793E2,3.8541016E1,3.791992E1,1.9539062E1,6.3671875E-1,0E0,0E0,0E0,0E0,0E0,0E0,0E0,0E0,0E0,0E0,0E0,0E0,0E0,0E0,0E0,0E0,0E0,0E0,0E0,0E0,0E0,0E0,0E0,0E0,0E0,0E0,0E0,0E0,0E0,0E0,0E0,0E0,0E0,0E0,0E0,0E0,0E0,0E0,0E0,0E0,0E0,0E0,0E0,0E0,0E0,0E0,0E0,0E0,0E0,0E0,0E0,0E0,0E0,0E0,0E0,0E0,0E0,0E0,0E0,0E0,0E0,0E0,0E0,0E0],"parents":[2147483647,0,0,1,1,2,2,3,3,4,4,5,5,6,6,7,7,8,8,9,9,10,10,11,11,12,12,13,13,14,14,15,15,16,16,17,17,18,18,19,19,20,20,21,21,22,22,23,23,24,24,25,25,26,26,27,27,28,28,29,29,30,30,31,31,32,32,33,33,34,34,35,35,36,36,37,37,38,38,39,39,40,40,41,41,42,42,43,43,44,44,45,45,46,46,47,47,48,48,49,49,50,50,51,51,52,52,53,53,54,54,55,55,56,56,57,57,58,58,59,59,60,60,61,61,62,62],"right_children":[2,4,6,8,10,12,14,16,18,20,22,24,26,28,30,32,34,36,38,40,42,44,46,48,50,52,54,56,58,60,62,64,66,68,70,72,74,76,78,80,82,84,86,88,90,92,94,96,98,100,102,104,106,108,110,112,114,116,118,120,122,124,126,-1,-1,-1,-1,-1,-1,-1,-1,-1,-1,-1,-1,-1,-1,-1,-1,-1,-1,-1,-1,-1,-1,-1,-1,-1,-1,-1,-1,-1,-1,-1,-1,-1,-1,-1,-1,-1,-1,-1,-1,-1,-1,-1,-1,-1,-1,-1,-1,-1,-1,-1,-1,-1,-1,-1,-1,-1,-1,-1,-1,-1,-1,-1,-1],"split_conditions":[1.8852459E-1,5.7377048E-2,5E-1,2.4590163E-2,5.699328E-3,1.16562275E-2,7.4590164E-1,2.747536E-3,1.5411276E-2,9.016393E-2,1.22950815E-1,3.0327868E-1,3.0327868E-1,1.16564445E-2,8.9344263E-1,8.90294E-7,8.196721E-3,5.106071E-7,7.984552E-4,3.858728E-6,3.0139452E-3,7.377049E-2,7.5265756E-3,7.355093E-7,3.0542281E-3,1.0137694E-2,6.5E0,3.0374215E-3,1.1867799E-2,5.5965856E-3,9.7540987E-1,3.7668757E-5,1.4514266E-5,1.3874689E-1,3.861728E-2,4.0983606E-2,1.1108542E-2,5.898199E-5,9.392267E-3,2.292552E-5,1.1098325E-2,1.5199848E-10,3.0144886E-3,2.987214E-3,4.727614E-4,1.1098366E-2,2.2192224E-4,2.2195963E-2,1.9602133E-3,3.0138264E-3,6.5E0,5.573066E-6,2.2131148E-1,5.5E0,1.3334686E-1,5.9836066E-1,6.5E0,1.1717443E-2,5.4146E-3,1.1659502E-2,5.5462494E-2,8.96385E-3,1.0993214E-2,1.4391378E-1,2.9174536E-1,1.4574702E-1,2.2653328E-1,3.2461053E-1,3.810546E-1,1.9478366E-1,3.3478993E-1,7.276755E-2,2.0071303E-2,4.6291903E-1,9.677483E-2,1.9211133E-1,9.1561526E-2,1.9901997E-1,2.789834E-1,-3.4799686E-1,-3.4995604E-2,5.9668875E-1,1.6056893E-2,-1.5732169E-1,-7.613653E-3,-1.7120223E-1,1.3919872E-1,1.66502E-1,2.2803695E-1,9.719473E-2,1.6627115E-1,6.616489E-2,-8.678642E-2,2.9317938E-2,1.0249475E-1,-2.5021583E-1,-3.6096665E-1,6.8335414E-1,-2.0164996E-1,-3.0067337E-1,-3.7552544E-1,1.3137104E-1,-1.404721E-1,2.2706152E-1,-1.2422429E-1,2.9318536E-2,-1.6058652E-2,2.4621377E-2,2.0504628E-1,-2.0699576E-1,-1.0312834E-1,-3.902894E-1,-4.2590111E-1,-8.983996E-2,-3.2473743E-1,5.738403E-1,-2.0040968E-1,-3.6179405E-1,-1.8073252E-1,-4.4545227E-1,-4.0847957E-1,-3.5425466E-1,-9.500739E-3,-4.468268E-1,-4.038109E-1,-4.5857093E-1,-4.4666642E-1],"split_indices":[6,6,6,6,1,1,6,5,2,6,6,6,6,1,6,5,6,4,5,4,5,6,3,7,5,3,0,5,1,5,6,2,4,4,2,6,4,5,3,3,4,5,5,5,5,4,5,4,7,5,0,3,6,0,4,6,0,1,5,1,5,5,5,0,0,0,0,0,0,0,0,0,0,0,0,0,0,0,0,0,0,0,0,0,0,0,0,0,0,0,0,0,0,0,0,0,0,0,0,0,0,0,0,0,0,0,0,0,0,0,0,0,0,0,0,0,0,0,0,0,0,0,0,0,0,0,0],"split_type":[0,0,0,0,0,0,0,0,0,0,0,0,0,0,0,0,0,0,0,0,0,0,0,0,0,0,0,0,0,0,0,0,0,0,0,0,0,0,0,0,0,0,0,0,0,0,0,0,0,0,0,0,0,0,0,0,0,0,0,0,0,0,0,0,0,0,0,0,0,0,0,0,0,0,0,0,0,0,0,0,0,0,0,0,0,0,0,0,0,0,0,0,0,0,0,0,0,0,0,0,0,0,0,0,0,0,0,0,0,0,0,0,0,0,0,0,0,0,0,0,0,0,0,0,0,0,0],"sum_hessian":[2.0500188E5,1.1730982E5,8.7692055E4,8.0781055E4,3.6528766E4,3.2888164E4,5.4803887E4,5.7897473E4,2.2883584E4,1.0985201E4,2.5543562E4,2.119186E4,1.1696306E4,1.8652975E4,3.6150914E4,3.9957249E3,5.3901746E4,3.1127004E3,1.9770883E4,2.9682246E3,8.0169766E3,1.7423594E4,8.1199697E3,8.699903E3,1.2491956E4,6.231381E3,5.464925E3,1.2778679E4,5.8742954E3,1.2564567E4,2.3586346E4,1.6497037E3,2.3460212E3,3.576442E4,1.8137324E4,1.1476132E3,1.9650873E3,2.3329277E3,1.7437955E4,9.3884314E2,2.0293816E3,4.336397E3,3.680579E3,5.922957E3,1.1500637E4,9.242397E2,7.19573E3,2.7543167E3,5.945587E3,1.1414884E4,1.0770724E3,5.5049493E2,5.6808857E3,3.0339352E2,5.1615312E3,1.1217389E4,1.5612898E3,2.08254E3,3.7917554E3,1.0963123E4,1.6014446E3,1.0489011E4,1.3097336E4,1.6746265E2,1.4822411E3,3.5126974E2,1.9947515E3,2.1148303E3,3.364959E4,1.352549E3,1.6784775E4,5.7916797E2,5.684452E2,2.1613135E2,1.7489559E3,1.749073E3,5.838548E2,1.1468947E3,1.6291061E4,1.1952578E1,9.2689056E2,1.713226E2,1.858059E3,1.195496E3,3.1409011E3,3.504449E3,1.761301E2,1.0827094E3,4.8402476E3,2.179646E3,9.32099E3,4.0627225E2,5.179674E2,1.6012882E3,5.594442E3,1.727982E3,1.0263346E3,2.9114572E2,5.6544414E3,7.1266475E3,4.2882363E3,7.509071E1,1.0019817E3,5.5489243E1,4.9500568E2,2.1473481E3,3.5335376E3,2.4980443E2,5.3589085E1,7.7297614E2,4.388555E3,4.7847456E3,6.432643E3,1.0907644E2,1.4522134E3,1.1344178E1,2.0711958E3,2.964741E3,8.270143E2,6.3499453E3,4.6131772E3,1.5721399E3,2.9304752E1,9.298943E3,1.190067E3,1.0831434E4,2.2659023E3],"tree_param":{"num_deleted":"0","num_feature":"8","num_nodes":"127","size_leaf_vector":"0"}},{"base_weights":[-3.663543E-3,6.094853E-1,-9.044865E-1,8.8437104E-1,2.3788156E-1,-5.2545536E-1,-1.1675974E0,1.0049266E0,7.5355476E-1,-1.3878694E-1,3.8167804E-1,-7.615672E-1,-2.133561E-1,-1.0214998E0,-1.2615072E0,7.0789284E-1,1.0226849E0,4.2101884E-1,7.988846E-1,6.133287E-2,-2.963351E-1,5.25876E-1,2.2570209E-1,-6.245153E-1,-9.453163E-1,-4.3947637E-2,-3.892694E-1,-1.1362795E0,-8.059243E-1,-1.2122029E0,-1.3006668E0,8.451624E-1,6.135284E-1,6.485327E-1,1.0285873E0,2.5726986E-1,5.9362286E-1,4.7334707E-1,8.3247143E-1,-5.477561E-2,2.088526E-1,-5.0696445E-1,-1.6275923E-1,3.59003E-1,5.638696E-1,-8.291446E-2,2.5479552E-1,-9.512949E-1,-5.5704623E-1,-9.867681E-1,-4.3349573E-1,-6.8392545E-2,4.51293E-1,-6.477545E-1,-2.7977434E-1,-1.161864E0,-7.470968E-1,-4.984618E-1,-9.21916E-1,-1.2341151E0,-9.829313E-1,-1.3129264E0,-1.2593528E0,2.9222775E-1,8.669223E-1,4.8159006E-1,8.0132335E-1,7.677481E-1,1.2853785E-1,1.1792489E0,1.0147637E0,3.932843E-1,-1.3219434E-1,1.6833788E0,4.72651E-1,5.928883E-1,3.558809E-1,8.8012546E-1,7.5562537E-1,1.3494833E-1,-4.5705992E-1,1.9202013E0,-1.930798E-2,-3.4950024E-1,-6.698169E-1,2.056983E0,-3.563783E-1,4.263427E-1,2.4971138E-1,3.3757985E-1,5.828259E-1,-1.2092731E-3,-9.91462E-1,2.028879E0,2.4745294E-1,-1.0330311E0,-8.238981E-1,2.5629635E0,-5.851195E-1,-9.1454166E-1,-1.1173315E0,-1.1187407E0,-3.3954597E-1,3.3106908E-1,-9.139334E-2,1.6824493E-2,6.3336456E-1,1.494042E-1,-6.9686615E-1,-2.1214113E-1,-5.457086E-1,-8.785675E-1,-1.176351E0,1.3129035E-2,-8.08742E-1,3.716007E-2,-5.305895E-1,-1.0616944E0,-6.0055226E-1,-1.2831349E0,-1.1837454E0,-1.047606E0,-7.56061E-1,-1.2763976E0,-1.3267152E0,-1.1762905E0,-1.3061687E0],"categories":[],"categories_nodes":[],"categories_segments":[],"categories_sizes":[],"default_left":[1,1,1,1,1,1,1,1,1,1,1,1,1,1,1,1,1,1,1,1,1,1,1,1,1,1,1,1,1,1,1,1,1,1,1,1,1,1,1,1,1,1,1,1,1,1,1,1,1,1,1,1,1,1,1,1,1,1,1,1,1,1,1,0,0,0,0,0,0,0,0,0,0,0,0,0,0,0,0,0,0,0,0,0,0,0,0,0,0,0,0,0,0,0,0,0,0,0,0,0,0,0,0,0,0,0,0,0,0,0,0,0,0,0,0,0,0,0,0,0,0,0,0,0,0,0,0],"id":2,"left_children":[1,3,5,7,9,11,13,15,17,19,21,23,25,27,29,31,33,35,37,39,41,43,45,47,49,51,53,55,57,59,61,63,65,67,69,71,73,75,77,79,81,83,85,87,89,91,93,95,97,99,101,103,105,107,109,111,113,115,117,119,121,123,125,-1,-1,-1,-1,-1,-1,-1,-1,-1,-1,-1,-1,-1,-1,-1,-1,-1,-1,-1,-1,-1,-1,-1,-1,-1,-1,-1,-1,-1,-1,-1,-1,-1,-1,-1,-1,-1,-1,-1,-1,-1,-1,-1,-1,-1,-1,-1,-1,-1,-1,-1,-1,-1,-1,-1,-1,-1,-1,-1,-1,-1,-1,-1,-1],"loss_changes":[1.03789914E5,1.1420777E4,7.5888594E3,1.01277344E3,2.5750828E3,2.297793E3,6.150078E2,1.7567578E2,4.6432422E2,4.141695E2,7.737412E2,4.4648145E2,4.0027734E2,4.3410938E2,5.120703E1,2.3960938E1,6.9015625E1,1.0442493E2,2.9620508E2,9.9132324E1,2.0670422E2,1.1314453E2,1.4844098E2,2.237251E2,1.6043896E2,8.288168E1,1.8631873E2,1.1334277E2,2.1751001E2,5.9658203E1,6.0585938E0,8.977966E0,2.7453522E1,3.0446793E1,6.3496094E1,1.0072681E2,2.3657208E2,3.544635E1,8.937695E1,2.4727438E2,9.952997E2,7.289514E1,1.9343483E3,2.431488E1,6.226172E1,1.05767296E2,1.9627869E2,1.7259766E1,7.401504E2,6.511621E1,3.6307076E1,5.9960144E1,2.5464561E1,7.683673E1,8.3167725E1,4.313086E1,3.330014E1,2.886673E1,1.9865234E2,2.5779297E1,1.4789429E1,4.2089844E0,1.2105469E1,0E0,0E0,0E0,0E0,0E0,0E0,0E0,0E0,0E0,0E0,0E0,0E0,0E0,0E0,0E0,0E0,0E0,0E0,0E0,0E0,0E0,0E0,0E0,0E0,0E0,0E0,0E0,0E0,0E0,0E0,0E0,0E0,0E0,0E0,0E0,0E0,0E0,0E0,0E0,0E0,0E0,0E0,0E0,0E0,0E0,0E0,0E0,0E0,0E0,0E0,0E0,0E0,0E0,0E0,0E0,0E0,0E0,0E0,0E0,0E0,0E0,0E0,0E0,0E0],"parents":[2147483647,0,0,1,1,2,2,3,3,4,4,5,5,6,6,7,7,8,8,9,9,10,10,11,11,12,12,13,13,14,14,15,15,16,16,17,17,18,18,19,19,20,20,21,21,22,22,23,23,24,24,25,25,26,26,27,27,28,28,29,29,30,30,31,31,32,32,33,33,34,34,35,35,36,36,37,37,38,38,39,39,40,40,41,41,42,42,43,43,44,44,45,45,46,46,47,47,48,48,49,49,50,50,51,51,52,52,53,53,54,54,55,55,56,56,57,57,58,58,59,59,60,60,61,61,62,62],"right_children":[2,4,6,8,10,12,14,16,18,20,22,24,26,28,30,32,34,36,38,40,42,44,46,48,50,52,54,56,58,60,62,64,66,68,70,72,74,76,78,80,82,84,86,88,90,92,94,96,98,100,102,104,106,108,110,112,114,116,118,120,122,124,126,-1,-1,-1,-1,-1,-1,-1,-1,-1,-1,-1,-1,-1,-1,-1,-1,-1,-1,-1,-1,-1,-1,-1,-1,-1,-1,-1,-1,-1,-1,-1,-1,-1,-1,-1,-1,-1,-1,-1,-1,-1,-1,-1,-1,-1,-1,-1,-1,-1,-1,-1,-1,-1,-1,-1,-1,-1,-1,-1,-1,-1,-1,-1,-1],"split_conditions":[2.0491803E-1,4.0983606E-2,5.3278685E-1,8.196721E-3,5.059817E-3,7.4029253E-3,7.95082E-1,2.747536E-3,7.755767E-2,1.0655738E-1,9.016393E-2,3.6885244E-1,3.360656E-1,1.0338692E-2,9.4262296E-1,8.90294E-7,3.9600986E-3,1.1117725E-2,2.9983858E-3,1.1112872E-2,6.1444337E-7,2.9894505E-3,4.445093E-2,1.1137018E-9,3.0977826E-3,3.0141561E-3,1.0338914E-2,5.040998E-3,1.0505816E-2,8.8366205E-3,7.387708E-3,8.57487E-4,2.421205E-4,2.2200238E-2,6.5E0,1.1108542E-2,2.221938E-2,8.6111544E-7,2.4590163E-2,1.1098325E-2,2.221606E-2,1.1091833E-2,1.9599767E-3,4.37115E-5,1.3380347E-1,4.4439748E-2,5.5549674E-2,3.9256355E-3,8.942312E-7,3.0137072E-3,1.1744801E-6,6.5E0,5.897888E-3,6.5E0,8.460465E-2,6.5E0,6.5E0,6.5E0,3.0139857E-3,1.1659502E-2,2.5858983E-2,1.4430244E-1,9.918033E-1,8.766833E-2,2.600767E-1,1.4447702E-1,2.4039702E-1,2.3032445E-1,3.8561355E-2,3.537747E-1,3.044291E-1,1.1798529E-1,-3.9658304E-2,5.0501364E-1,1.417953E-1,1.7786649E-1,1.0676427E-1,2.6403764E-1,2.2668763E-1,4.04845E-2,-1.3711798E-1,5.760604E-1,-5.7923943E-3,-1.04850076E-1,-2.0094508E-1,6.1709493E-1,-1.0691349E-1,1.2790282E-1,7.491342E-2,1.0127396E-1,1.7484778E-1,-3.6278195E-4,-2.9743862E-1,6.086637E-1,7.423589E-2,-3.0990934E-1,-2.4716944E-1,7.6888907E-1,-1.7553586E-1,-2.743625E-1,-3.3519948E-1,-3.3562222E-1,-1.01863794E-1,9.932073E-2,-2.7418002E-2,5.0473483E-3,1.9000937E-1,4.4821262E-2,-2.0905985E-1,-6.364234E-2,-1.6371259E-1,-2.6357028E-1,-3.529053E-1,3.938711E-3,-2.426226E-1,1.1148021E-2,-1.5917686E-1,-3.1850833E-1,-1.8016568E-1,-3.849405E-1,-3.5512364E-1,-3.1428182E-1,-2.2681831E-1,-3.8291928E-1,-3.9801458E-1,-3.5288715E-1,-3.9185062E-1],"split_indices":[6,6,6,6,1,1,6,5,2,6,6,6,6,3,6,5,7,4,5,4,7,5,4,5,5,5,3,5,3,5,5,1,5,4,0,4,4,5,6,4,4,4,7,5,4,4,4,7,5,5,7,0,7,0,2,0,0,0,5,1,3,4,6,0,0,0,0,0,0,0,0,0,0,0,0,0,0,0,0,0,0,0,0,0,0,0,0,0,0,0,0,0,0,0,0,0,0,0,0,0,0,0,0,0,0,0,0,0,0,0,0,0,0,0,0,0,0,0,0,0,0,0,0,0,0,0,0],"split_type":[0,0,0,0,0,0,0,0,0,0,0,0,0,0,0,0,0,0,0,0,0,0,0,0,0,0,0,0,0,0,0,0,0,0,0,0,0,0,0,0,0,0,0,0,0,0,0,0,0,0,0,0,0,0,0,0,0,0,0,0,0,0,0,0,0,0,0,0,0,0,0,0,0,0,0,0,0,0,0,0,0,0,0,0,0,0,0,0,0,0,0,0,0,0,0,0,0,0,0,0,0,0,0,0,0,0,0,0,0,0,0,0,0,0,0,0,0,0,0,0,0,0,0,0,0,0,0],"sum_hessian":[1.8790795E5,1.1180663E5,7.610133E4,6.4265938E4,4.7540695E4,3.1182945E4,4.491838E4,3.344113E4,3.0824809E4,1.3134773E4,3.440592E4,1.7751785E4,1.343116E4,1.758023E4,2.7338148E4,1.8888221E3,3.1552309E4,3.6990637E3,2.7125744E4,5.7859683E3,7.3488047E3,1.7876727E4,1.6529195E4,1.0170428E4,7.581357E3,6.8427183E3,6.588442E3,1.1469309E4,6.1109224E3,1.2115714E4,1.5222436E4,7.662382E2,1.1225839E3,4.9173734E2,3.106057E4,1.899502E3,1.7995618E3,2.5383284E3,2.4587416E4,3.2380344E3,2.5479338E3,2.850769E3,4.4980356E3,3.3172725E3,1.4559454E4,1.4238169E3,1.5105379E4,1.7382566E3,8.432171E3,7.012494E3,5.688625E2,6.521673E3,3.2104565E2,1.9589744E3,4.6294673E3,1.0759969E4,7.093394E2,1.6753419E3,4.4355806E3,1.1054789E4,1.0609247E3,1.17152295E4,3.507206E3,2.9558798E1,7.3667944E2,6.6144183E2,4.611421E2,3.9963867E2,9.209868E1,2.6033013E3,2.845727E4,1.4078292E3,4.916727E2,1.7851576E2,1.621046E3,1.2560465E3,1.2822819E3,1.5169813E4,9.417604E3,2.2007764E3,1.037258E3,2.988622E2,2.2490715E3,1.4509615E3,1.3998075E3,3.6009613E2,4.13794E3,2.0507861E3,1.2664865E3,1.1268281E3,1.3432626E4,1.3072573E3,1.1655961E2,6.1125633E1,1.5044254E4,1.0545571E3,6.8369946E2,7.438921E1,8.357782E3,4.520049E3,2.4924456E3,6.7274216E1,5.015883E2,3.5434055E2,6.167332E3,9.5131165E1,2.2591449E2,1.1356678E2,1.8454076E3,3.692243E3,9.3722455E2,5.264593E2,1.023351E4,5.326369E1,6.560757E2,9.479507E1,1.5805469E3,3.0894912E3,1.3460894E3,5.5900586E3,5.4647305E3,8.2276013E2,2.3816454E2,3.23601E3,8.479219E3,1.2736251E3,2.2335808E3],"tree_param":{"num_deleted":"0","num_feature":"8","num_nodes":"127","size_leaf_vector":"0"}},{"base_weights":[-5.737709E-3,4.58182E-1,-7.6478386E-1,7.1188116E-1,1.594599E-1,-4.5643255E-1,-1.049062E0,8.332589E-1,5.870481E-1,-1.2271597E-1,2.6888E-1,-6.1951095E-1,-1.6271256E-1,-9.078909E-1,-1.1304299E0,5.4265594E-1,8.519233E-1,6.2225454E-2,6.0947067E-1,-7.826716E-2,-8.049182E-1,2.0538366E0,2.5547722E-1,-6.6915417E-1,-1.4915E-1,-5.8555573E-2,-2.6642558E-1,-1.0310764E0,-7.121776E-1,-1.0789908E0,-1.1814083E0,2.5394654E-1,5.915737E-1,6.6678184E-1,8.646944E-1,1.787685E-1,-1.8202978E-1,3.7162918E-1,6.402585E-1,-1.4006887E-1,2.03688E0,-1.080927E0,-6.85801E-1,1.851361E0,2.1855352E0,-8.2945395E-1,2.719497E-1,-5.3095436E-1,-8.4748566E-1,1.302462E-1,-3.3416155E-1,-6.510309E-2,7.88107E-1,-3.0022517E-1,3.1847835E-1,-1.0723162E0,-7.89232E-1,-3.898836E-1,-8.2426155E-1,-1.1054577E0,-8.9414096E-1,-1.1965568E0,-1.1341122E0,2.7906317E-1,-1.8398287E0,1.4375712E0,5.6221735E-1,4.169139E-1,8.3152616E-1,1.0187812E0,8.509167E-1,4.021882E-2,1.4197783E0,-8.8934906E-2,-6.154538E-1,1.5303898E0,3.2807928E-1,3.964252E-1,6.595706E-1,-6.823954E-2,-6.5048766E-1,1.8580939E0,2.188335E0,-4.012314E-1,-1.1148471E0,-9.069477E-1,-5.3137267E-1,1.8185474E0,2.2624388E0,-1.2340976E0,-7.4455905E-1,2.0384796E0,2.626819E-1,-3.883229E-1,-7.6505405E-1,-7.7261984E-1,-9.8264045E-1,-4.8518366E-1,1.9749951E-1,-9.1513145E-1,-2.8293705E-1,-1.044563E0,-5.9449762E-2,-2.2233995E-2,9.3811405E-1,-1.9015478E-1,-5.5189896E-1,1.990346E-1,1.3387597E0,-7.4939847E-1,-1.0833185E0,-6.2301767E-1,-8.6289704E-1,1.6562932E0,-4.079628E-1,-9.662369E-1,-5.1702976E-1,-1.1617138E0,-1.045494E0,-9.2128235E-1,-3.3135664E-1,-1.155801E0,-1.2126696E0,-1.0349692E0,-1.178216E0],"categories":[],"categories_nodes":[],"categories_segments":[],"categories_sizes":[],"default_left":[1,1,1,1,1,1,1,1,1,1,1,1,1,1,1,1,1,1,1,1,1,1,1,1,1,1,1,1,1,1,1,1,1,1,1,1,1,1,1,1,1,1,1,0,1,1,1,1,1,1,1,1,1,1,1,1,1,1,1,1,1,1,1,0,0,0,0,0,0,0,0,0,0,0,0,0,0,0,0,0,0,0,0,0,0,0,0,0,0,0,0,0,0,0,0,0,0,0,0,0,0,0,0,0,0,0,0,0,0,0,0,0,0,0,0,0,0,0,0,0,0,0,0,0,0],"id":3,"left_children":[1,3,5,7,9,11,13,15,17,19,21,23,25,27,29,31,33,35,37,39,41,43,45,47,49,51,53,55,57,59,61,63,65,67,69,71,73,75,77,79,81,83,85,-1,87,89,91,93,95,97,99,101,103,105,107,109,111,113,115,117,119,121,123,-1,-1,-1,-1,-1,-1,-1,-1,-1,-1,-1,-1,-1,-1,-1,-1,-1,-1,-1,-1,-1,-1,-1,-1,-1,-1,-1,-1,-1,-1,-1,-1,-1,-1,-1,-1,-1,-1,-1,-1,-1,-1,-1,-1,-1,-1,-1,-1,-1,-1,-1,-1,-1,-1,-1,-1,-1,-1,-1,-1,-1,-1],"loss_changes":[6.00795E4,8.02508E3,5.672785E3,8.671367E2,1.5016057E3,1.487062E3,3.8578125E2,1.5699414E2,3.3219727E2,4.1201877E2,8.378489E2,4.660454E2,1.19734344E2,2.962295E2,5.473047E1,2.463208E1,6.391992E1,3.2993423E1,1.9802539E2,1.668209E3,2.6585327E1,2.9145508E0,6.218689E2,4.4457422E2,9.862513E1,3.0719126E1,1.0990115E2,7.452637E1,1.7167505E2,5.1078125E1,6.3222656E0,1.3975664E1,3.643878E1,7.2287415E1,5.329492E1,1.3481067E2,1.5056648E1,1.5621512E2,1.1261621E2,4.5451297E2,5.7440186E0,5.2896423E0,1.9439697E1,0E0,1.9299316E-1,1.696054E1,5.60438E2,3.3947656E2,7.899609E1,3.157181E1,3.3894577E1,3.0340736E1,5.1906815E0,1.4536761E2,3.6770416E1,2.211621E1,1.2988831E1,4.6194733E1,1.5355615E2,3.0174805E1,2.0134644E1,3.9160156E0,1.0231689E1,0E0,0E0,0E0,0E0,0E0,0E0,0E0,0E0,0E0,0E0,0E0,0E0,0E0,0E0,0E0,0E0,0E0,0E0,0E0,0E0,0E0,0E0,0E0,0E0,0E0,0E0,0E0,0E0,0E0,0E0,0E0,0E0,0E0,0E0,0E0,0E0,0E0,0E0,0E0,0E0,0E0,0E0,0E0,0E0,0E0,0E0,0E0,0E0,0E0,0E0,0E0,0E0,0E0,0E0,0E0,0E0,0E0,0E0,0E0,0E0,0E0,0E0],"parents":[2147483647,0,0,1,1,2,2,3,3,4,4,5,5,6,6,7,7,8,8,9,9,10,10,11,11,12,12,13,13,14,14,15,15,16,16,17,17,18,18,19,19,20,20,21,21,22,22,23,23,24,24,25,25,26,26,27,27,28,28,29,29,30,30,31,31,32,32,33,33,34,34,35,35,36,36,37,37,38,38,39,39,40,40,41,41,42,42,44,44,45,45,46,46,47,47,48,48,49,49,50,50,51,51,52,52,53,53,54,54,55,55,56,56,57,57,58,58,59,59,60,60,61,61,62,62],"right_children":[2,4,6,8,10,12,14,16,18,20,22,24,26,28,30,32,34,36,38,40,42,44,46,48,50,52,54,56,58,60,62,64,66,68,70,72,74,76,78,80,82,84,86,-1,88,90,92,94,96,98,100,102,104,106,108,110,112,114,116,118,120,122,124,-1,-1,-1,-1,-1,-1,-1,-1,-1,-1,-1,-1,-1,-1,-1,-1,-1,-1,-1,-1,-1,-1,-1,-1,-1,-1,-1,-1,-1,-1,-1,-1,-1,-1,-1,-1,-1,-1,-1,-1,-1,-1,-1,-1,-1,-1,-1,-1,-1,-1,-1,-1,-1,-1,-1,-1,-1,-1,-1,-1,-1,-1],"split_conditions":[2.2131148E-1,4.0983606E-2,5.9836066E-1,8.196721E-3,2.3079183E-2,1.16562275E-2,8.114754E-1,2.747536E-3,8.8897576E-7,2.3076158E-2,3.0765979E-2,3.013963E-3,3.52459E-1,1.1657277E-2,9.590164E-1,2.6793245E-7,7.3076926E-2,1.1100307E-2,2.484936E-3,1.5391697E-2,2.2943537E-3,1.22950815E-1,3.0771475E-2,4.0163934E-1,3.8524592E-1,2.7295021E-2,8.949844E-3,3.0431785E-3,1.1863846E-2,7.354367E-3,7.387261E-3,2.2729002E-3,1.9532514E-3,3.721568E-3,6.5E0,2.1591231E-5,1.5346635E-2,1.9588787E-3,3.861728E-2,1.5383761E-2,1.22950815E-1,6.5E0,3.33502E-2,5.5540836E-1,1.9543082E-3,1.9025661E-3,3.845539E-2,3.0138264E-3,3.0136933E-3,1.2321918E-5,1.1744801E-6,1.5783079E-2,7.747419E-2,1.1867799E-2,3.9999492E-2,4.3193513E-4,6.639344E-1,8.082544E-2,3.0139857E-3,1.5703399E-2,4.3853417E-2,1.1815447E-2,9.918033E-1,8.3718956E-2,-5.5194867E-1,4.3127137E-1,1.6866522E-1,1.2507418E-1,2.4945785E-1,3.0563438E-1,2.55275E-1,1.2065646E-2,4.259335E-1,-2.6680473E-2,-1.8463615E-1,4.5911697E-1,9.842379E-2,1.1892756E-1,1.9787118E-1,-2.0471863E-2,-1.951463E-1,5.574282E-1,6.565005E-1,-1.2036943E-1,-3.3445412E-1,-2.7208433E-1,-1.594118E-1,5.4556423E-1,6.787317E-1,-3.702293E-1,-2.2336772E-1,6.115439E-1,7.8804575E-2,-1.1649687E-1,-2.2951622E-1,-2.3178597E-1,-2.9479215E-1,-1.4555511E-1,5.9249856E-2,-2.7453944E-1,-8.488112E-2,-3.1336892E-1,-1.783493E-2,-6.670199E-3,2.8143424E-1,-5.7046436E-2,-1.655697E-1,5.9710383E-2,4.0162793E-1,-2.2481956E-1,-3.2499555E-1,-1.8690531E-1,-2.588691E-1,4.9688795E-1,-1.2238885E-1,-2.8987107E-1,-1.5510893E-1,-3.4851417E-1,-3.136482E-1,-2.763847E-1,-9.9406995E-2,-3.4674034E-1,-3.6380088E-1,-3.104908E-1,-3.534648E-1],"split_indices":[6,6,6,6,2,1,6,5,7,2,2,5,6,1,6,7,2,4,5,2,3,6,2,6,6,3,5,5,1,5,5,5,7,3,0,4,2,7,2,2,6,0,4,0,7,3,2,5,5,7,7,2,2,1,5,1,6,2,5,7,5,1,6,0,0,0,0,0,0,0,0,0,0,0,0,0,0,0,0,0,0,0,0,0,0,0,0,0,0,0,0,0,0,0,0,0,0,0,0,0,0,0,0,0,0,0,0,0,0,0,0,0,0,0,0,0,0,0,0,0,0,0,0,0,0],"split_type":[0,0,0,0,0,0,0,0,0,0,0,0,0,0,0,0,0,0,0,0,0,0,0,0,0,0,0,0,0,0,0,0,0,0,0,0,0,0,0,0,0,0,0,0,0,0,0,0,0,0,0,0,0,0,0,0,0,0,0,0,0,0,0,0,0,0,0,0,0,0,0,0,0,0,0,0,0,0,0,0,0,0,0,0,0,0,0,0,0,0,0,0,0,0,0,0,0,0,0,0,0,0,0,0,0,0,0,0,0,0,0,0,0,0,0,0,0,0,0,0,0,0,0,0,0],"sum_hessian":[1.7061225E5,1.0589246E5,6.471978E4,5.726066E4,4.8631805E4,3.104665E4,3.367313E4,2.9029246E4,2.8231416E4,1.3588708E4,3.5043094E4,1.9962191E4,1.1084459E4,1.2316501E4,2.1356629E4,1.7537424E3,2.7275504E4,1.1568934E3,2.7074521E4,1.2758542E4,8.3016675E2,2.600341E2,3.478306E4,1.8056078E4,1.9061135E3,5.5311733E3,5.553286E3,7.5562144E3,4.760286E3,1.0641313E4,1.0715316E4,2.5499164E2,1.4987507E3,1.7634917E3,2.5512012E4,7.8338165E2,3.7351175E2,3.1045303E3,2.3969992E4,1.2397245E4,3.6129678E2,2.4783318E2,5.8233356E2,1.08414154E2,1.5161992E2,5.194735E2,3.4263586E4,1.0174906E4,7.8811714E3,7.5947864E2,1.1466349E3,5.489643E3,4.1530098E1,5.2503716E3,3.029142E2,6.4524897E3,1.1037247E3,1.2294679E3,3.5308186E3,9.304164E3,1.3371487E3,8.0974644E3,2.6178516E3,2.528255E2,2.1661408E0,4.865427E1,1.4500964E3,7.021184E2,1.0613733E3,2.0879463E3,2.3424066E4,7.056351E2,7.774659E1,3.084625E2,6.504927E1,1.1121516E2,2.9933152E3,1.7607238E3,2.2209268E4,1.0868847E4,1.5283983E3,1.7178285E2,1.8951393E2,1.2389974E1,2.3544319E2,2.3743938E2,3.448942E2,3.0538038E1,1.2108189E2,8.7738655E1,4.3173486E2,1.77677E2,3.408591E4,6.3243096E3,3.8505967E3,5.076102E3,2.8050693E3,7.42065E1,6.8527216E2,9.15413E1,1.0550935E3,3.0449127E1,5.459194E3,6.6200805E0,3.491002E1,3.6540264E3,1.5963453E3,2.722385E2,3.0675722E1,2.1487909E2,6.2376104E3,3.418492E2,7.6187555E2,9.97434E0,1.2194935E3,2.4134092E3,1.1174093E3,4.791004E3,4.51316E3,1.2750212E3,6.21274E1,2.3148926E3,5.782572E3,8.135341E2,1.8043175E3],"tree_param":{"num_deleted":"0","num_feature":"8","num_nodes":"125","size_leaf_vector":"0"}},{"base_weights":[-7.4719526E-3,4.0876275E-1,-5.5652326E-1,6.2586135E-1,2.2666967E-1,-2.7185833E-1,-9.0561223E-1,6.92194E-1,5.1608855E-1,3.3759123E-1,9.528088E-2,-4.5503935E-1,-1.094074E-1,-7.418923E-1,-1.0302452E0,4.1357067E-1,7.1154857E-1,2.7150488E-1,5.524636E-1,1.1993971E-1,3.7557507E-1,-2.493594E-1,1.4408487E-1,-3.0243415E-1,-5.983913E-1,-2.4595942E-2,-2.5576591E-1,-8.7335014E-1,-5.382408E-1,-9.562648E-1,-1.0861303E0,5.2791625E-1,3.022611E-1,8.7566674E-1,6.974324E-1,1.1869831E-1,3.7959296E-1,2.6015085E-1,5.773594E-1,2.0798771E-1,-2.564531E-1,1.6528401E0,3.658627E-1,-1.3407153E-1,-4.684223E-1,1.700217E0,1.1370104E-1,-1.748804E-1,-4.7791335E-1,-7.7451503E-1,-5.1333195E-1,-5.142062E-1,-1.2463607E-2,-4.2193234E-1,-1.467221E-1,-9.216999E-1,-5.9901375E-1,-2.9237875E-1,-6.485483E-1,-1.058424E0,-8.7362427E-1,-1.1055454E0,-1.0228798E0,1.7474763E-1,5.4732716E-1,1.2314861E-1,4.9491096E-1,6.264285E-1,9.000991E-1,5.054548E-1,7.107068E-1,1.9065045E-1,-1.2717904E-1,1.429892E0,2.9253915E-1,3.7293085E-1,8.128578E-2,7.776537E-1,5.625444E-1,8.690958E-2,1.6000642E0,-1.3356078E-1,-6.054276E-1,1.4794271E0,1.7550266E0,-2.9329535E-1,3.750821E-1,-2.3765013E-1,2.1904974E0,-7.9757404E-1,-3.922659E-1,1.8208247E0,1.5982267E0,-6.1644113E-1,1.4745857E-1,-3.788192E-1,1.5049593E-1,-5.2431375E-1,2.74525E-1,-5.9619445E-1,-8.678408E-1,3.6321838E0,-6.321198E-1,-3.8110116E-1,-9.070845E-1,2.491157E0,-1.8798193E-2,4.7630444E-1,-4.525127E-1,3.2219878E-1,-1.760173E-1,-8.5705084E-1,-1.0182017E0,-9.710496E-2,-6.425245E-1,1.1955215E0,-3.067567E-1,-7.332539E-1,-1.2344895E-1,-7.617217E-1,-1.0741104E0,4.4292085E-2,-9.5431453E-1,-1.0516324E0,-1.1262681E0,-9.125621E-1,-1.0896784E0],"categories":[],"categories_nodes":[],"categories_segments":[],"categories_sizes":[],"default_left":[1,1,1,1,1,1,1,1,1,1,1,1,1,1,1,1,1,1,1,1,1,1,1,1,1,1,1,1,1,1,1,1,1,1,1,1,1,1,1,1,1,1,1,1,1,1,1,1,1,1,1,1,1,1,1,1,1,1,1,1,1,1,1,0,0,0,0,0,0,0,0,0,0,0,0,0,0,0,0,0,0,0,0,0,0,0,0,0,0,0,0,0,0,0,0,0,0,0,0,0,0,0,0,0,0,0,0,0,0,0,0,0,0,0,0,0,0,0,0,0,0,0,0,0,0,0,0],"id":4,"left_children":[1,3,5,7,9,11,13,15,17,19,21,23,25,27,29,31,33,35,37,39,41,43,45,47,49,51,53,55,57,59,61,63,65,67,69,71,73,75,77,79,81,83,85,87,89,91,93,95,97,99,101,103,105,107,109,111,113,115,117,119,121,123,125,-1,-1,-1,-1,-1,-1,-1,-1,-1,-1,-1,-1,-1,-1,-1,-1,-1,-1,-1,-1,-1,-1,-1,-1,-1,-1,-1,-1,-1,-1,-1,-1,-1,-1,-1,-1,-1,-1,-1,-1,-1,-1,-1,-1,-1,-1,-1,-1,-1,-1,-1,-1,-1,-1,-1,-1,-1,-1,-1,-1,-1,-1,-1,-1],"loss_changes":[3.5580863E4,3.5007012E3,6.671162E3,2.937793E2,7.0188525E2,1.1004309E3,6.145371E2,1.3547559E2,1.3525195E2,2.1585425E2,3.708914E2,3.8005493E2,2.4329707E2,3.4855518E2,6.973828E1,2.06846E1,5.392383E1,3.2531754E1,9.6259766E1,1.2869884E2,2.7521777E2,6.901936E1,9.1301416E2,1.8840192E2,1.3385132E2,7.371536E1,1.3023569E2,1.0451611E2,1.3858203E2,6.133838E1,1.0836914E1,5.4331207E0,2.8655067E1,1.0765381E1,5.4890625E1,1.4506508E1,1.05165054E2,2.0980644E1,3.5786133E1,5.301953E2,3.1498672E1,3.7194824E-1,1.3421729E2,4.3236957E2,2.3319809E1,1.638916E0,4.6705664E2,3.237409E2,1.23876526E2,4.8018066E1,2.9794937E3,1.5346405E1,1.9213205E2,7.8464935E1,5.9721794E1,4.113037E1,2.5919678E1,3.430751E1,1.5697852E2,1.45095215E1,3.024353E2,7.131836E0,1.5969238E1,0E0,0E0,0E0,0E0,0E0,0E0,0E0,0E0,0E0,0E0,0E0,0E0,0E0,0E0,0E0,0E0,0E0,0E0,0E0,0E0,0E0,0E0,0E0,0E0,0E0,0E0,0E0,0E0,0E0,0E0,0E0,0E0,0E0,0E0,0E0,0E0,0E0,0E0,0E0,0E0,0E0,0E0,0E0,0E0,0E0,0E0,0E0,0E0,0E0,0E0,0E0,0E0,0E0,0E0,0E0,0E0,0E0,0E0,0E0,0E0,0E0,0E0,0E0,0E0],"parents":[2147483647,0,0,1,1,2,2,3,3,4,4,5,5,6,6,7,7,8,8,9,9,10,10,11,11,12,12,13,13,14,14,15,15,16,16,17,17,18,18,19,19,20,20,21,21,22,22,23,23,24,24,25,25,26,26,27,27,28,28,29,29,30,30,31,31,32,32,33,33,34,34,35,35,36,36,37,37,38,38,39,39,40,40,41,41,42,42,43,43,44,44,45,45,46,46,47,47,48,48,49,49,50,50,51,51,52,52,53,53,54,54,55,55,56,56,57,57,58,58,59,59,60,60,61,61,62,62],"right_children":[2,4,6,8,10,12,14,16,18,20,22,24,26,28,30,32,34,36,38,40,42,44,46,48,50,52,54,56,58,60,62,64,66,68,70,72,74,76,78,80,82,84,86,88,90,92,94,96,98,100,102,104,106,108,110,112,114,116,118,120,122,124,126,-1,-1,-1,-1,-1,-1,-1,-1,-1,-1,-1,-1,-1,-1,-1,-1,-1,-1,-1,-1,-1,-1,-1,-1,-1,-1,-1,-1,-1,-1,-1,-1,-1,-1,-1,-1,-1,-1,-1,-1,-1,-1,-1,-1,-1,-1,-1,-1,-1,-1,-1,-1,-1,-1,-1,-1,-1,-1,-1,-1,-1,-1,-1,-1],"split_conditions":[1.557377E-1,2.4590163E-2,5.491803E-1,8.196721E-3,7.377049E-2,4.7016307E-3,8.114754E-1,2.747536E-3,1.3764575E-1,7.6925457E-3,6.1444337E-7,2.8688526E-1,3.52459E-1,1.16564445E-2,9.4262296E-1,5.300066E-6,6.5E0,1.050248E-5,9.0942846E-4,7.6815635E-3,1.5377886E-2,7.683484E-3,1.9606308E-3,3.0139452E-3,1.1411863E-6,7.847979E-3,1.0338914E-2,3.0374215E-3,1.1867799E-2,1.1687661E-2,7.387708E-3,8.57487E-4,2.421205E-4,2.5E0,1.3874689E-1,1.1091088E-2,7.684828E-3,3.4224333E-6,5.5E0,1.1715099E-5,1.6144853E-2,2.2180717E-2,1.5411276E-2,5.0964794E-5,9.42223E-4,1.0655738E-1,1.9614159E-3,2.934613E-4,3.1866047E-3,1.1104922E-2,1.9602636E-3,7.611147E-3,1.5267033E-2,4.881723E-3,6.5E0,6.967213E-1,6.5E0,8.084347E-2,1.0501137E-2,6.5E0,1.174425E-2,1.4430244E-1,9.918033E-1,5.2424293E-2,1.6419816E-1,3.6944587E-2,1.484733E-1,1.8792856E-1,2.7002975E-1,1.5163644E-1,2.1321204E-1,5.719514E-2,-3.8153715E-2,4.289676E-1,8.7761745E-2,1.1187926E-1,2.4385735E-2,2.3329611E-1,1.6876332E-1,2.6072875E-2,4.8001927E-1,-4.0068235E-2,-1.8162829E-1,4.4382814E-1,5.26508E-1,-8.798861E-2,1.12524636E-1,-7.129504E-2,6.5714926E-1,-2.3927222E-1,-1.1767977E-1,5.462474E-1,4.7946802E-1,-1.8493235E-1,4.4237573E-2,-1.1364576E-1,4.5148782E-2,-1.5729412E-1,8.2357496E-2,-1.7885834E-1,-2.6035225E-1,1.0896552E0,-1.8963595E-1,-1.1433035E-1,-2.7212536E-1,7.473471E-1,-5.639458E-3,1.4289133E-1,-1.3575383E-1,9.665964E-2,-5.2805193E-2,-2.5711527E-1,-3.054605E-1,-2.9131489E-2,-1.9275735E-1,3.5865647E-1,-9.2027016E-2,-2.1997617E-1,-3.7034687E-2,-2.285165E-1,-3.2223314E-1,1.3287626E-2,-2.8629437E-1,-3.1548974E-1,-3.3788046E-1,-2.7376863E-1,-3.2690352E-1],"split_indices":[6,6,6,6,6,3,6,5,4,2,7,6,6,1,6,5,0,2,5,2,2,2,7,5,7,2,3,5,1,1,5,1,5,0,4,4,2,5,0,2,7,4,2,2,3,6,7,5,5,4,7,2,2,3,0,6,0,2,5,0,1,4,6,0,0,0,0,0,0,0,0,0,0,0,0,0,0,0,0,0,0,0,0,0,0,0,0,0,0,0,0,0,0,0,0,0,0,0,0,0,0,0,0,0,0,0,0,0,0,0,0,0,0,0,0,0,0,0,0,0,0,0,0,0,0,0,0],"split_type":[0,0,0,0,0,0,0,0,0,0,0,0,0,0,0,0,0,0,0,0,0,0,0,0,0,0,0,0,0,0,0,0,0,0,0,0,0,0,0,0,0,0,0,0,0,0,0,0,0,0,0,0,0,0,0,0,0,0,0,0,0,0,0,0,0,0,0,0,0,0,0,0,0,0,0,0,0,0,0,0,0,0,0,0,0,0,0,0,0,0,0,0,0,0,0,0,0,0,0,0,0,0,0,0,0,0,0,0,0,0,0,0,0,0,0,0,0,0,0,0,0,0,0,0,0,0,0],"sum_hessian":[1.5568962E5,8.855586E4,6.7133766E4,4.0394043E4,4.8161812E4,3.6980094E4,3.0153672E4,2.5175742E4,1.5218301E4,2.6114098E4,2.2047715E4,1.7380215E4,1.9599879E4,1.3036137E4,1.7117537E4,1.6366945E3,2.3539047E4,1.9713722E3,1.3246929E4,3.8808057E3,2.2233293E4,2.7343542E3,1.9313361E4,8.419911E3,8.960303E3,1.240983E4,7.190048E3,7.9202764E3,5.1158604E3,7.3739897E3,9.743547E3,8.054908E2,8.312037E2,1.8594598E3,2.1679588E4,8.1760443E2,1.1537678E3,1.0405692E3,1.2206359E4,3.145451E3,7.3535486E2,1.6651012E2,2.2066783E4,1.7925746E3,9.4177966E2,3.6882336E2,1.8944537E4,4.8769272E3,3.5429841E3,2.915457E3,6.0448457E3,2.9907397E2,1.2110756E4,2.8477046E3,4.3423433E3,6.731534E3,1.1887421E3,1.5855383E3,3.530322E3,3.29229E3,4.0816995E3,7.4425303E3,2.3010164E3,4.2486134E1,7.6300464E2,4.31585E2,3.9961868E2,1.6838467E2,1.6910752E3,1.4046238E3,2.0274965E4,6.3268396E2,1.8492043E2,8.712957E1,1.0666382E3,6.375126E2,4.0305664E2,8.371254E2,1.1369233E4,2.8947388E3,2.507122E2,5.448627E2,1.9049214E2,6.747722E1,9.903289E1,3.039579E2,2.1762824E4,1.7169674E3,7.560721E1,1.7517819E2,7.6660144E2,1.6126642E2,2.0755696E2,8.364162E2,1.8108121E4,2.9978044E3,1.8791228E3,3.3374763E3,2.0550792E2,1.0041616E3,1.9112954E3,1.6756331E2,5.877282E3,2.24862E2,7.4211975E1,2.9574957E1,1.2081182E4,9.3277954E1,2.7544265E3,2.5474274E2,4.0876008E3,4.0369558E3,2.6945781E3,9.508942E1,1.0936527E3,1.4388591E1,1.5711497E3,3.0395977E3,4.9072424E2,1.6780875E2,3.1244812E3,3.2984946E2,3.75185E3,2.080795E3,5.3617354E3,8.73346E2,1.4276703E3],"tree_param":{"num_deleted":"0","num_feature":"8","num_nodes":"127","size_leaf_vector":"0"}},{"base_weights":[-8.610379E-3,2.3939724E-1,-5.888977E-1,4.2419243E-1,2.0283634E-2,-3.3740434E-1,-8.6269474E-1,5.690703E-1,3.2568258E-1,-2.0084621E-1,8.794113E-2,-5.0038654E-1,-1.6297306E-1,-7.2486883E-1,-9.8446876E-1,3.1262937E-1,5.883241E-1,1.20338574E-1,3.5988155E-1,-7.618614E-2,-4.8215637E-1,2.137812E0,5.589573E-2,-7.7411526E-1,-4.3475896E-1,-6.265094E-1,-1.3676035E-1,-8.6835355E-1,-5.5838454E-1,-9.2751074E-1,-1.0410594E0,8.011884E-2,3.5470805E-1,3.9733943E-1,6.024029E-1,1.8139261E-1,-5.6797755E-1,1.5021455E0,3.5236087E-1,-2.4649309E-1,2.0014486E0,-3.302393E-1,-6.716727E-1,1.897345E0,2.528215E0,-5.1992506E-1,8.8542745E-2,-1.6511278E-1,-7.885129E-1,3.507817E0,-4.6005568E-1,-4.133819E-1,-9.48508E-1,3.358258E0,-1.5299155E-1,-9.0793246E-1,-5.655612E-1,-1.5811864E-1,-6.660694E-1,-9.525681E-1,-5.839765E-1,-1.058353E0,-9.608693E-1,2.2306661E-1,-2.2079615E-1,1.2417479E0,3.273758E-1,1.9366777E-1,5.842484E-1,7.7442074E-1,5.881886E-1,1.1277272E-1,1.3450772E0,4.6091968E-1,-6.0689163E-1,1.3298897E-1,3.8493618E-1,-1.3595665E-1,-4.2173246E-1,1.746219E0,2.438579E0,-5.592529E-1,2.201484E0,-8.721455E-1,-4.998223E-1,1.6669235E0,2.0674906E0,2.1585991E0,2.8123374E0,-7.3505265E-1,-4.0471056E-1,1.8502996E0,6.818215E-2,3.5360423E-1,-7.957392E-1,-4.4883156E-1,-8.057947E-1,2.0214653E0,4.917202E0,8.903051E-2,-4.9139857E-1,-7.225384E-1,3.0689778E0,-1.0121875E0,1.0658233E0,3.8684676E0,2.6291757E0,-9.168828E-1,-1.3331394E-1,-5.69744E-1,-9.2653984E-1,-4.2256203E-1,-7.600491E-1,6.1443675E-1,-2.039294E-1,-8.1963956E-1,-3.6936504E-1,-1.032108E0,-9.0022236E-1,2.3260066E-1,-6.485606E-1,-9.8639125E-1,-1.082111E0,-7.909587E-1,-1.004151E0],"categories":[],"categories_nodes":[],"categories_segments":[],"categories_sizes":[],"default_left":[1,1,1,1,1,1,1,1,1,1,1,1,1,1,1,1,1,1,1,1,1,1,1,1,1,1,1,1,1,1,1,1,1,1,1,1,1,0,1,1,1,1,1,1,1,1,1,1,1,1,1,1,1,1,1,1,1,1,1,1,1,1,1,0,0,0,0,0,0,0,0,0,0,0,0,0,0,0,0,0,0,0,0,0,0,0,0,0,0,0,0,0,0,0,0,0,0,0,0,0,0,0,0,0,0,0,0,0,0,0,0,0,0,0,0,0,0,0,0,0,0,0,0,0,0],"id":5,"left_children":[1,3,5,7,9,11,13,15,17,19,21,23,25,27,29,31,33,35,37,39,41,43,45,47,49,51,53,55,57,59,61,63,65,67,69,71,73,-1,75,77,79,81,83,85,87,89,91,93,95,97,99,101,103,105,107,109,111,113,115,117,119,121,123,-1,-1,-1,-1,-1,-1,-1,-1,-1,-1,-1,-1,-1,-1,-1,-1,-1,-1,-1,-1,-1,-1,-1,-1,-1,-1,-1,-1,-1,-1,-1,-1,-1,-1,-1,-1,-1,-1,-1,-1,-1,-1,-1,-1,-1,-1,-1,-1,-1,-1,-1,-1,-1,-1,-1,-1,-1,-1,-1,-1,-1,-1],"loss_changes":[2.0615977E4,4.06362E3,2.95317E3,7.768154E2,6.8698267E2,6.355442E2,3.4393262E2,1.08609375E2,2.2755542E2,3.7721747E2,2.309505E3,2.0729224E2,1.3115543E2,2.2970703E2,3.4166992E1,1.504776E1,5.4864746E1,1.9461536E2,2.381355E2,2.6385452E3,9.4878784E1,4.6007324E1,6.5085876E2,1.9457153E1,9.3164197E2,3.926274E1,5.8052814E2,6.149121E1,1.9228076E2,4.6282227E1,6.5532227E0,1.0262308E1,3.1221115E1,5.3561905E1,4.620996E1,3.393946E2,1.5388199E1,0E0,1.9719336E2,1.3343591E2,5.877295E1,1.0654082E3,5.0164062E1,9.840332E0,1.5275635E1,4.5746033E1,1.1751036E3,1.7571901E1,1.244751E1,1.1484314E2,1.5951941E2,3.7845392E2,3.0499695E1,7.426697E0,1.5287071E2,2.825586E1,1.6386978E1,3.366059E1,1.5994434E2,2.0179688E1,1.979512E1,6.59375E0,6.4075317E0,0E0,0E0,0E0,0E0,0E0,0E0,0E0,0E0,0E0,0E0,0E0,0E0,0E0,0E0,0E0,0E0,0E0,0E0,0E0,0E0,0E0,0E0,0E0,0E0,0E0,0E0,0E0,0E0,0E0,0E0,0E0,0E0,0E0,0E0,0E0,0E0,0E0,0E0,0E0,0E0,0E0,0E0,0E0,0E0,0E0,0E0,0E0,0E0,0E0,0E0,0E0,0E0,0E0,0E0,0E0,0E0,0E0,0E0,0E0,0E0,0E0,0E0],"parents":[2147483647,0,0,1,1,2,2,3,3,4,4,5,5,6,6,7,7,8,8,9,9,10,10,11,11,12,12,13,13,14,14,15,15,16,16,17,17,18,18,19,19,20,20,21,21,22,22,23,23,24,24,25,25,26,26,27,27,28,28,29,29,30,30,31,31,32,32,33,33,34,34,35,35,36,36,38,38,39,39,40,40,41,41,42,42,43,43,44,44,45,45,46,46,47,47,48,48,49,49,50,50,51,51,52,52,53,53,54,54,55,55,56,56,57,57,58,58,59,59,60,60,61,61,62,62],"right_children":[2,4,6,8,10,12,14,16,18,20,22,24,26,28,30,32,34,36,38,40,42,44,46,48,50,52,54,56,58,60,62,64,66,68,70,72,74,-1,76,78,80,82,84,86,88,90,92,94,96,98,100,102,104,106,108,110,112,114,116,118,120,122,124,-1,-1,-1,-1,-1,-1,-1,-1,-1,-1,-1,-1,-1,-1,-1,-1,-1,-1,-1,-1,-1,-1,-1,-1,-1,-1,-1,-1,-1,-1,-1,-1,-1,-1,-1,-1,-1,-1,-1,-1,-1,-1,-1,-1,-1,-1,-1,-1,-1,-1,-1,-1,-1,-1,-1,-1,-1,-1,-1,-1,-1,-1],"split_conditions":[2.8688526E-1,5.7377048E-2,6.47541E-1,8.196721E-3,7.6923757E-3,7.400534E-3,8.770492E-1,2.747536E-3,2.2231806E-2,7.689139E-3,1.5383761E-2,1.1137018E-9,1.9619616E-3,1.1657277E-2,9.7540987E-1,2.6793245E-7,7.3076926E-2,2.221938E-2,3.3322856E-2,1.3068772E-6,2.2208005E-2,1.7213115E-1,1.538492E-2,1.925622E-4,8.9442887E-7,1.9570354E-3,3.92032E-3,4.287689E-3,1.17583405E-2,1.3453398E-2,1.0994108E-2,1.11075565E-2,1.9532514E-3,1.3874689E-1,6.5E0,1.1114018E-2,1.3914553E-4,4.506437E-1,2.484936E-3,1.1110196E-2,1.557377E-1,1.1127862E-2,2.223884E-2,1.0655738E-1,1.9578882E-3,2.3351915E-3,2.3076158E-2,4.1803277E-1,6.5E0,3.6885244E-1,6.5E0,1.09270295E-5,3.25522E-2,3.3968238E-3,3.922495E-3,6.5E0,6.13883E-2,6.5E0,3.025718E-3,1.1688642E-2,1.4071815E-2,1.4430244E-1,9.918033E-1,6.691999E-2,-6.623885E-2,3.7252438E-1,9.821274E-2,5.810033E-2,1.7527454E-1,2.3232622E-1,1.7645659E-1,3.3831816E-2,4.0352318E-1,1.382759E-1,-1.820675E-1,3.9896693E-2,1.1548086E-1,-4.0786996E-2,-1.2651974E-1,5.2386576E-1,7.3157376E-1,-1.6777588E-1,6.604452E-1,-2.6164365E-1,-1.4994669E-1,5.0007707E-1,6.202472E-1,6.475798E-1,8.4370124E-1,-2.205158E-1,-1.2141317E-1,5.550899E-1,2.0454645E-2,1.0608127E-1,-2.3872176E-1,-1.3464947E-1,-2.4173842E-1,6.064396E-1,1.4751606E0,2.6709154E-2,-1.4741957E-1,-2.1676153E-1,9.206934E-1,-3.0365625E-1,3.19747E-1,1.1605403E0,7.8875273E-1,-2.7506486E-1,-3.9994184E-2,-1.709232E-1,-2.7796197E-1,-1.2676862E-1,-2.2801474E-1,1.8433103E-1,-6.1178822E-2,-2.4589188E-1,-1.1080951E-1,-3.096324E-1,-2.700667E-1,6.97802E-2,-1.9456819E-1,-2.959174E-1,-3.246333E-1,-2.3728763E-1,-3.012453E-1],"split_indices":[6,6,6,6,2,1,6,5,4,2,2,5,7,1,6,7,2,4,4,2,4,6,2,1,5,7,7,5,1,5,5,4,7,4,0,4,3,0,5,4,6,4,4,6,7,1,2,6,0,6,0,7,3,5,7,0,2,0,5,1,5,4,6,0,0,0,0,0,0,0,0,0,0,0,0,0,0,0,0,0,0,0,0,0,0,0,0,0,0,0,0,0,0,0,0,0,0,0,0,0,0,0,0,0,0,0,0,0,0,0,0,0,0,0,0,0,0,0,0,0,0,0,0,0,0],"split_type":[0,0,0,0,0,0,0,0,0,0,0,0,0,0,0,0,0,0,0,0,0,0,0,0,0,0,0,0,0,0,0,0,0,0,0,0,0,0,0,0,0,0,0,0,0,0,0,0,0,0,0,0,0,0,0,0,0,0,0,0,0,0,0,0,0,0,0,0,0,0,0,0,0,0,0,0,0,0,0,0,0,0,0,0,0,0,0,0,0,0,0,0,0,0,0,0,0,0,0,0,0,0,0,0,0,0,0,0,0,0,0,0,0,0,0,0,0,0,0,0,0,0,0,0,0],"sum_hessian":[1.4324842E5,1.0035747E5,4.2890957E4,5.4441703E4,4.5915766E4,2.235721E4,2.0533744E4,2.203305E4,3.2408652E4,1.0756748E4,3.515902E4,1.1556951E4,1.0800259E4,9.635303E3,1.0898442E4,1.5399424E3,2.0493107E4,4.627548E3,2.7781104E4,7.454586E3,3.3021624E3,5.401654E2,3.461885E4,2.2328923E3,9.32406E3,5.768335E2,1.0223426E4,5.172855E3,4.4624478E3,5.4402583E3,5.458184E3,2.3642937E2,1.3035131E3,1.408976E3,1.9084133E4,4.2512E3,3.7634744E2,1.8041461E2,2.760069E4,6.890632E3,5.639544E2,1.8344236E3,1.4677386E3,3.3789832E2,2.022671E2,1.856655E3,3.2762197E4,5.1857365E1,2.181035E3,5.856683E1,9.265492E3,3.484692E2,2.2836429E2,4.6307255E1,1.0177118E4,4.5730938E3,5.9976117E2,9.46556E2,3.5158916E3,5.0687695E3,3.7148886E2,4.479875E3,9.783091E2,1.6046173E2,7.596763E1,3.7636227E1,1.2658768E3,6.7522754E2,7.3374835E2,1.4525332E3,1.76316E4,4.0155115E3,2.3568887E2,1.3319977E1,3.6302747E2,3.5692646E3,2.4031424E4,4.226464E3,2.6641677E3,3.5921338E2,2.0474104E2,1.6829657E3,1.5145792E2,6.7557227E2,7.921663E2,1.481125E2,1.8978581E2,9.164421E1,1.1062289E2,6.456753E2,1.2109797E3,3.7327954E2,3.2388918E4,2.8694336E1,2.3163029E1,1.0689716E2,2.0741377E3,2.9689877E1,2.8876953E1,5.002326E2,8.76526E3,3.2078326E2,2.7685942E1,2.2184846E2,6.5158277E0,2.470961E1,2.1597643E1,2.5443091E2,9.9226875E3,2.4014241E2,4.332951E3,3.4746027E2,2.5230089E2,5.2291782E1,8.942642E2,2.3156038E3,1.2002877E3,2.0043798E3,3.0643896E3,2.7037317E1,3.4445157E2,1.1224784E3,3.3573965E3,2.0252654E2,7.757826E2],"tree_param":{"num_deleted":"0","num_feature":"8","num_nodes":"125","size_leaf_vector":"0"}},{"base_weights":[-8.927138E-3,1.4935814E-1,-6.0259676E-1,2.959867E-1,-6.261282E-2,-3.8752514E-1,-8.2429975E-1,4.0500018E-1,1.7549053E-1,-2.6962957E-1,8.310317E-4,-5.242591E-1,-1.6832483E-1,-6.858928E-1,-9.2485404E-1,2.0330964E-1,4.287535E-1,4.2950207E-1,1.576354E-1,-1.2350972E-1,-6.4182657E-1,2.414025E0,-4.0027544E-2,-5.888861E-1,-1.3683757E-1,3.801455E-1,-2.0303659E-1,-8.461272E-1,-5.361007E-1,-8.5581183E-1,-9.861569E-1,1.0905056E-2,2.9310834E-1,1.9437099E-1,4.4575158E-1,-1.2965113E0,4.3746662E-1,-6.461789E-2,1.7637096E-1,-3.245371E-1,1.6784043E0,-1.9192038E-1,-7.007983E-1,2.0615046E0,3.5949786E0,-7.4211097E-1,-4.112146E-3,-5.048314E-1,-7.4071914E-1,-5.22721E-2,-5.5200803E-1,2.654665E-1,9.642044E-1,-2.4342822E-1,2.6790318E-1,-9.043846E-1,-5.818365E-1,-5.9224896E-2,-6.3693047E-1,-8.893298E-1,-5.391889E-1,-1.0147673E0,-9.0702146E-1,3.0322343E-2,-9.1617E-1,1.3159347E0,2.0853521E-1,3.0714062E-1,2.7472753E-2,4.9175993E-1,3.7114653E-1,-3.4073237E-1,-1.4920635E0,1.1943595E-1,4.650637E-1,-1.0815017E-2,-5.706608E-1,1.4536202E0,1.6455892E-1,-2.2199762E-1,-5.3586155E-1,1.5291346E0,2.2192688E0,1.4934376E-1,-4.844967E-1,-6.007689E-1,-7.7777374E-1,1.8829453E0,2.5731087E0,4.0838976E0,1.6548332E0,-5.394743E-1,-8.941609E-1,2.5842993E0,-3.771249E-2,-7.4162525E-1,-3.8629082E-1,4.0312296E-1,-7.55656E-1,-9.0802714E-2,2.4869847E0,-1.0598555E0,-4.6609616E-1,-2.1804348E-1,3.9128217E-1,7.199073E-1,2.154746E0,-9.78315E-2,-4.3718278E-1,-5.7069564E-1,3.7783107E-1,-5.488312E-1,-9.246288E-1,-3.7099612E-1,-7.350544E-1,-6.419784E-1,2.8244166E-2,-7.9669946E-1,-3.5079584E-1,-8.9226764E-1,1.0048603E0,-7.099895E-1,-1.6030109E-1,-9.235206E-1,-1.0483519E0,-7.286923E-1,-9.594182E-1],"categories":[],"categories_nodes":[],"categories_segments":[],"categories_sizes":[],"default_left":[1,1,1,1,1,1,1,1,1,1,1,1,1,1,1,1,1,1,1,1,1,1,1,1,1,1,1,1,1,1,1,1,1,1,1,1,1,1,1,1,1,1,1,1,1,1,1,1,1,1,1,1,1,1,1,1,1,1,1,1,1,1,1,0,0,0,0,0,0,0,0,0,0,0,0,0,0,0,0,0,0,0,0,0,0,0,0,0,0,0,0,0,0,0,0,0,0,0,0,0,0,0,0,0,0,0,0,0,0,0,0,0,0,0,0,0,0,0,0,0,0,0,0,0,0,0,0],"id":6,"left_children":[1,3,5,7,9,11,13,15,17,19,21,23,25,27,29,31,33,35,37,39,41,43,45,47,49,51,53,55,57,59,61,63,65,67,69,71,73,75,77,79,81,83,85,87,89,91,93,95,97,99,101,103,105,107,109,111,113,115,117,119,121,123,125,-1,-1,-1,-1,-1,-1,-1,-1,-1,-1,-1,-1,-1,-1,-1,-1,-1,-1,-1,-1,-1,-1,-1,-1,-1,-1,-1,-1,-1,-1,-1,-1,-1,-1,-1,-1,-1,-1,-1,-1,-1,-1,-1,-1,-1,-1,-1,-1,-1,-1,-1,-1,-1,-1,-1,-1,-1,-1,-1,-1,-1,-1,-1,-1],"loss_changes":[1.2541874E4,3.2751238E3,1.3392959E3,8.181138E2,5.659039E2,4.273911E2,1.918877E2,1.5657764E2,1.3412213E2,5.496074E2,3.2519993E3,2.1982837E2,1.04417114E2,1.39354E2,3.3056152E1,5.9559036E1,1.1646484E2,2.727185E1,1.151286E2,2.6300498E3,7.545764E1,2.2119702E2,8.178081E2,9.568872E1,4.4102165E1,2.1616463E1,9.81228E1,4.277893E1,1.4484949E2,3.957715E1,8.669922E0,1.9793287E1,2.0303902E2,3.725609E1,9.343994E1,1.2064657E0,1.6922272E1,5.8531574E1,3.844253E2,1.4141064E2,5.544043E1,3.317619E1,1.892517E1,3.40011E1,1.1171045E2,4.8148438E1,2.6836362E3,1.3579736E2,4.609375E1,1.0250377E2,8.781769E0,1.6774271E1,1.3926235E1,1.3390604E2,3.77979E1,1.6067749E1,1.6228622E1,2.688191E1,1.1342554E2,1.9881836E1,2.3433037E1,8.540283E0,9.898682E0,0E0,0E0,0E0,0E0,0E0,0E0,0E0,0E0,0E0,0E0,0E0,0E0,0E0,0E0,0E0,0E0,0E0,0E0,0E0,0E0,0E0,0E0,0E0,0E0,0E0,0E0,0E0,0E0,0E0,0E0,0E0,0E0,0E0,0E0,0E0,0E0,0E0,0E0,0E0,0E0,0E0,0E0,0E0,0E0,0E0,0E0,0E0,0E0,0E0,0E0,0E0,0E0,0E0,0E0,0E0,0E0,0E0,0E0,0E0,0E0,0E0,0E0,0E0,0E0],"parents":[2147483647,0,0,1,1,2,2,3,3,4,4,5,5,6,6,7,7,8,8,9,9,10,10,11,11,12,12,13,13,14,14,15,15,16,16,17,17,18,18,19,19,20,20,21,21,22,22,23,23,24,24,25,25,26,26,27,27,28,28,29,29,30,30,31,31,32,32,33,33,34,34,35,35,36,36,37,37,38,38,39,39,40,40,41,41,42,42,43,43,44,44,45,45,46,46,47,47,48,48,49,49,50,50,51,51,52,52,53,53,54,54,55,55,56,56,57,57,58,58,59,59,60,60,61,61,62,62],"right_children":[2,4,6,8,10,12,14,16,18,20,22,24,26,28,30,32,34,36,38,40,42,44,46,48,50,52,54,56,58,60,62,64,66,68,70,72,74,76,78,80,82,84,86,88,90,92,94,96,98,100,102,104,106,108,110,112,114,116,118,120,122,124,126,-1,-1,-1,-1,-1,-1,-1,-1,-1,-1,-1,-1,-1,-1,-1,-1,-1,-1,-1,-1,-1,-1,-1,-1,-1,-1,-1,-1,-1,-1,-1,-1,-1,-1,-1,-1,-1,-1,-1,-1,-1,-1,-1,-1,-1,-1,-1,-1,-1,-1,-1,-1,-1,-1,-1,-1,-1,-1,-1,-1,-1,-1,-1,-1],"split_conditions":[4.1803277E-1,9.016393E-2,7.2950816E-1,2.4590163E-2,1.9610731E-3,1.0338692E-2,8.9344263E-1,7.812695E-2,6.5E0,1.9602133E-3,3.9198957E-3,3.102256E-3,6.5E0,1.1657823E-2,9.7540987E-1,1.4514266E-5,9.1166515E-4,5E-1,8.8897576E-7,6.1444337E-7,1.22950815E-1,2.8688526E-1,3.9216774E-3,3.013886E-3,8.458028E-2,5.5E0,2.2572212E-2,3.0750842E-3,1.1855967E-2,1.1605906E-2,7.387261E-3,7.5220894E-3,1.11075565E-2,3.5721912E-6,8.196721E-3,4.6522655E-5,2.5E0,1.5374765E-2,1.9606308E-3,2.221606E-2,3.0327868E-1,2.2032524E-2,1.5343564E-2,2.2131148E-1,7.4029253E-3,2.3042858E-2,5.88159E-3,4.582462E-9,1.1000564E-5,7.6939344E-2,8.4711075E-2,9.238608E-7,3.1134105E-1,1.1860654E-2,3.5968005E-6,6.5E0,4.5706164E-2,1.0300001E-2,3.0277516E-3,9.308471E-2,3.0220564E-2,1.1815447E-2,9.918033E-1,9.0967035E-3,-2.7485102E-1,3.9478043E-1,6.2560566E-2,9.214219E-2,8.241827E-3,1.4752798E-1,1.11343965E-1,-1.02219716E-1,-4.4761908E-1,3.583079E-2,1.3951911E-1,-3.2445053E-3,-1.7119825E-1,4.360861E-1,4.9367677E-2,-6.659929E-2,-1.6075847E-1,4.587404E-1,6.6578066E-1,4.4803128E-2,-1.4534903E-1,-1.8023068E-1,-2.3333213E-1,5.648836E-1,7.7193266E-1,1.2251693E0,4.9644998E-1,-1.618423E-1,-2.682483E-1,7.7528983E-1,-1.1313747E-2,-2.2248758E-1,-1.1588725E-1,1.2093689E-1,-2.266968E-1,-2.7240815E-2,7.460954E-1,-3.1795666E-1,-1.3982886E-1,-6.541304E-2,1.1738466E-1,2.159722E-1,6.464238E-1,-2.9349452E-2,-1.3115484E-1,-1.712087E-1,1.13349326E-1,-1.6464937E-1,-2.7738866E-1,-1.1129884E-1,-2.2051632E-1,-1.9259353E-1,8.47325E-3,-2.3900984E-1,-1.0523876E-1,-2.6768032E-1,3.014581E-1,-2.1299686E-1,-4.8090328E-2,-2.770562E-1,-3.1450558E-1,-2.186077E-1,-2.8782547E-1],"split_indices":[6,6,6,6,7,3,6,2,0,7,7,5,0,1,6,4,5,0,7,7,6,6,7,5,2,0,3,5,1,5,5,2,4,5,6,5,0,2,7,4,6,4,2,6,1,2,7,5,3,2,2,5,4,1,5,0,2,3,5,3,1,1,6,0,0,0,0,0,0,0,0,0,0,0,0,0,0,0,0,0,0,0,0,0,0,0,0,0,0,0,0,0,0,0,0,0,0,0,0,0,0,0,0,0,0,0,0,0,0,0,0,0,0,0,0,0,0,0,0,0,0,0,0,0,0,0,0],"split_type":[0,0,0,0,0,0,0,0,0,0,0,0,0,0,0,0,0,0,0,0,0,0,0,0,0,0,0,0,0,0,0,0,0,0,0,0,0,0,0,0,0,0,0,0,0,0,0,0,0,0,0,0,0,0,0,0,0,0,0,0,0,0,0,0,0,0,0,0,0,0,0,0,0,0,0,0,0,0,0,0,0,0,0,0,0,0,0,0,0,0,0,0,0,0,0,0,0,0,0,0,0,0,0,0,0,0,0,0,0,0,0,0,0,0,0,0,0,0,0,0,0,0,0,0,0,0,0],"sum_hessian":[1.3346602E5,1.05372234E5,2.809379E4,6.228611E4,4.308612E4,1.4261558E4,1.383223E4,3.2699945E4,2.9586164E4,1.0106252E4,3.297987E4,8.782051E3,5.4795063E3,5.8238594E3,8.0083716E3,3.4463516E3,2.9253594E4,1.941588E3,2.7644576E4,7.2581323E3,2.8481196E3,5.4812897E2,3.243174E4,7.5260825E3,1.2559686E3,3.2555515E2,5.153951E3,2.8116047E3,3.0122546E3,3.7734688E3,4.234903E3,1.0970055E3,2.349346E3,1.9789391E3,2.7274654E4,8.175056E0,1.933413E3,2.1490232E3,2.5495553E4,6.5304E3,7.277327E2,3.3054956E2,2.51757E3,4.2423758E2,1.2389138E2,1.5773638E3,3.0854377E4,4.8470713E3,2.679011E3,1.0443685E3,2.116E2,2.7333984E2,5.2215305E1,4.74727E3,4.0668134E2,2.3017993E3,5.0980548E2,5.260208E2,2.486234E3,3.4106099E3,3.6285886E2,3.1017014E3,1.1332015E3,1.0754479E3,2.1557615E1,1.7830978E2,2.1710361E3,1.180476E3,7.9846313E2,1.68672E4,1.0407456E4,1.854319E0,6.320738E0,1.5480103E2,1.7786119E3,1.9434188E3,2.056044E2,2.325046E2,2.5263049E4,4.398296E3,2.1321042E3,5.733302E2,1.5440254E2,1.5280533E2,1.7774422E2,1.0986643E3,1.4189059E3,3.1794827E2,1.062893E2,9.807215E1,2.5819233E1,6.78147E2,8.992168E2,3.9441733E2,3.0459959E4,1.6152432E3,3.2318281E3,3.4197906E1,2.644813E3,1.029708E3,1.4660521E1,2.8976412E1,1.826236E2,5.628879E1,2.1705104E2,4.4656548E1,7.5587583E0,2.7113403E3,2.0359296E3,4.6645874E1,3.6003546E2,1.2551221E2,2.176287E3,2.1599706E2,2.938084E2,6.78223E1,4.581985E2,1.5942616E3,8.9197217E2,3.4058562E3,4.7535377E0,2.4950809E2,1.1335077E2,8.4214996E2,2.2595513E3,2.6072983E2,8.7247174E2],"tree_param":{"num_deleted":"0","num_feature":"8","num_nodes":"127","size_leaf_vector":"0"}},{"base_weights":[-9.013608E-3,1.0095601E-1,-5.6116736E-1,2.0593742E-1,-9.243746E-2,-3.8347742E-1,-7.8285825E-1,3.1472853E-1,1.1968429E-1,-2.64372E-1,-3.774191E-2,-5.211794E-1,-1.995733E-1,-6.7994803E-1,-9.161878E-1,3.6613002E-1,2.4078874E-1,-6.869803E-2,1.4273337E-1,-1.3497715E-1,-5.74512E-1,1.9300964E0,-7.423472E-2,-5.853585E-1,-2.0762011E-1,-2.2985728E-1,3.5267797E-1,-7.505337E-1,-4.2482165E-1,-9.5701987E-1,-8.0066365E-1,5.783489E-1,3.4987637E-1,6.8609655E-2,2.6724726E-1,3.8775828E-1,-1.2672234E-1,1.5177283E0,1.2262717E-1,-3.0108565E-1,1.5515667E0,-7.501002E-1,-5.3593665E-1,1.7397443E0,4.383423E0,-6.2336385E-1,-4.157295E-2,-1.5671809E-1,-6.1129767E-1,-5.09013E-1,-1.2164067E-1,-7.6569304E-2,-3.435048E-1,2.5101018E-1,1.6573594E0,-8.868812E-1,-6.3635087E-1,3.8522294E-1,-4.8470363E-1,-8.554169E-1,-9.9996114E-1,-6.1885333E-1,-9.0054494E-1,2.4496634E-1,6.126542E-1,1.3646528E-1,3.6634573E-1,4.6951643E-1,3.6647562E-2,4.7083497E-1,2.5149825E-1,3.6155835E-1,1.5088867E0,-2.8520282E-2,-2.4581367E-1,1.3621627E0,1.8950388E0,-3.0033618E-1,1.457241E-1,-1.6319357E-1,-4.0655747E-1,1.4583869E0,2.642512E0,-6.7304015E-1,-8.9164424E-1,-4.0618607E-1,-6.1722034E-1,1.5530492E0,1.8464991E0,5.2400055E0,1.808587E0,-4.563995E-1,-7.3494434E-1,2.1297765E0,-7.362091E-2,-3.672201E-1,1.0999557E0,-5.2872676E-1,-7.2435224E-1,-1.7646721E-1,-6.25499E-1,4.1921043E0,-2.1556954E-1,1.1100181E-1,-1.2368487E-1,-4.626748E-1,-4.8267122E-2,4.0974295E-1,-7.461029E-2,5.298786E-1,2.0172322E0,-5.6197137E-1,-9.0668786E-1,2.5830188E-1,-7.9751253E-1,1.1256841E-1,2.040393E0,-5.778211E-1,-2.810238E-1,-1.0056901E0,7.657228E-1,-1.000888E0,4.4235706E-1,-6.452886E-1,7.7330047E-1,-5.117751E-1,-9.2195636E-1],"categories":[],"categories_nodes":[],"categories_segments":[],"categories_sizes":[],"default_left":[1,1,1,1,1,1,1,1,1,1,1,1,1,1,1,1,1,1,1,1,1,1,1,1,1,1,1,1,1,1,1,1,1,1,1,1,1,1,1,1,1,1,1,1,1,1,1,1,1,1,1,1,1,1,1,1,1,1,1,1,1,1,1,0,0,0,0,0,0,0,0,0,0,0,0,0,0,0,0,0,0,0,0,0,0,0,0,0,0,0,0,0,0,0,0,0,0,0,0,0,0,0,0,0,0,0,0,0,0,0,0,0,0,0,0,0,0,0,0,0,0,0,0,0,0,0,0],"id":7,"left_children":[1,3,5,7,9,11,13,15,17,19,21,23,25,27,29,31,33,35,37,39,41,43,45,47,49,51,53,55,57,59,61,63,65,67,69,71,73,75,77,79,81,83,85,87,89,91,93,95,97,99,101,103,105,107,109,111,113,115,117,119,121,123,125,-1,-1,-1,-1,-1,-1,-1,-1,-1,-1,-1,-1,-1,-1,-1,-1,-1,-1,-1,-1,-1,-1,-1,-1,-1,-1,-1,-1,-1,-1,-1,-1,-1,-1,-1,-1,-1,-1,-1,-1,-1,-1,-1,-1,-1,-1,-1,-1,-1,-1,-1,-1,-1,-1,-1,-1,-1,-1,-1,-1,-1,-1,-1,-1],"loss_changes":[7.632083E3,2.128089E3,8.220464E2,6.3746436E2,3.4681076E2,2.933971E2,1.2680322E2,1.1409448E2,1.6455518E2,3.571057E2,2.0094692E3,1.3323608E2,8.310164E1,9.413989E1,1.830371E1,6.0922607E1,5.6122192E1,1.09484146E2,9.332785E2,1.7602565E3,1.734375E1,2.3029688E2,4.9269733E2,6.1060303E1,2.9154858E1,8.196623E1,3.3866943E1,6.3379883E1,5.5437332E1,1.2154297E1,1.8725525E1,1.4250366E1,5.7812134E1,2.1033619E1,3.4130005E1,1.3149803E1,4.2874226E1,2.597644E1,3.2515622E2,8.311279E1,5.341516E1,4.519806E0,2.2440674E1,6.588257E0,6.997937E1,2.8395752E1,1.8046051E3,8.378588E1,4.8029663E1,9.571289E0,3.56873E2,1.7733948E1,9.506018E1,1.2484581E1,6.4399033E0,1.1520752E1,3.2301337E2,3.5405285E1,1.9961823E1,2.182597E2,3.2368164E0,1.4473007E1,5.2147827E0,0E0,0E0,0E0,0E0,0E0,0E0,0E0,0E0,0E0,0E0,0E0,0E0,0E0,0E0,0E0,0E0,0E0,0E0,0E0,0E0,0E0,0E0,0E0,0E0,0E0,0E0,0E0,0E0,0E0,0E0,0E0,0E0,0E0,0E0,0E0,0E0,0E0,0E0,0E0,0E0,0E0,0E0,0E0,0E0,0E0,0E0,0E0,0E0,0E0,0E0,0E0,0E0,0E0,0E0,0E0,0E0,0E0,0E0,0E0,0E0,0E0,0E0,0E0,0E0],"parents":[2147483647,0,0,1,1,2,2,3,3,4,4,5,5,6,6,7,7,8,8,9,9,10,10,11,11,12,12,13,13,14,14,15,15,16,16,17,17,18,18,19,19,20,20,21,21,22,22,23,23,24,24,25,25,26,26,27,27,28,28,29,29,30,30,31,31,32,32,33,33,34,34,35,35,36,36,37,37,38,38,39,39,40,40,41,41,42,42,43,43,44,44,45,45,46,46,47,47,48,48,49,49,50,50,51,51,52,52,53,53,54,54,55,55,56,56,57,57,58,58,59,59,60,60,61,61,62,62],"right_children":[2,4,6,8,10,12,14,16,18,20,22,24,26,28,30,32,34,36,38,40,42,44,46,48,50,52,54,56,58,60,62,64,66,68,70,72,74,76,78,80,82,84,86,88,90,92,94,96,98,100,102,104,106,108,110,112,114,116,118,120,122,124,126,-1,-1,-1,-1,-1,-1,-1,-1,-1,-1,-1,-1,-1,-1,-1,-1,-1,-1,-1,-1,-1,-1,-1,-1,-1,-1,-1,-1,-1,-1,-1,-1,-1,-1,-1,-1,-1,-1,-1,-1,-1,-1,-1,-1,-1,-1,-1,-1,-1,-1,-1,-1,-1,-1,-1,-1,-1,-1,-1,-1,-1,-1,-1,-1],"split_conditions":[4.8360658E-1,1.22950815E-1,7.95082E-1,2.4590163E-2,1.9610731E-3,1.0338692E-2,9.590164E-1,8.196721E-3,5.106071E-7,1.9602636E-3,3.921045E-3,3.0374215E-3,2.9129095E-2,4.708591E-3,7.387261E-3,6.5E0,7.812695E-2,1.6751705E-5,1.1108542E-2,6.1444337E-7,1.7954586E-3,4.1803277E-1,3.9216774E-3,6.5E0,1.9614971E-3,1.0505816E-2,5.574382E-2,1.1659502E-2,6.5E0,1.1815447E-2,9.918033E-1,2.5E0,8.6336565E-4,6.5E0,6.5E0,1.12777E-5,1.611748E-2,9.016393E-2,1.1112872E-2,1.1110196E-2,4.1803277E-1,2.8688526E-1,1.5343564E-2,2.0491803E-1,7.446209E-3,2.3042858E-2,5.88159E-3,5.5E0,6.311475E-1,3.5759818E-3,3.8966346E-3,5.163934E-1,5.4146E-3,5.4900873E-2,4.02648E-2,6.5E0,1.1742674E-2,5.5E0,1.3177095E-2,1.16819395E-2,1.9293429E-1,6.975034E-2,6.5E0,7.3489904E-2,1.8379627E-1,4.0939584E-2,1.0990372E-1,1.4085494E-1,1.0994269E-2,1.4125049E-1,7.544948E-2,1.0846751E-1,4.52666E-1,-8.556085E-3,-7.37441E-2,4.0864882E-1,5.6851166E-1,-9.0100855E-2,4.371723E-2,-4.8958074E-2,-1.2196725E-1,4.375161E-1,7.9275364E-1,-2.0191206E-1,-2.6749328E-1,-1.21855825E-1,-1.851661E-1,4.659148E-1,5.539498E-1,1.5720017E0,5.4257613E-1,-1.3691986E-1,-2.2048332E-1,6.3893294E-1,-2.2086274E-2,-1.10166036E-1,3.2998672E-1,-1.5861803E-1,-2.1730568E-1,-5.2940164E-2,-1.8764971E-1,1.2576313E0,-6.467087E-2,3.3300545E-2,-3.7105463E-2,-1.3880244E-1,-1.4480137E-2,1.2292289E-1,-2.2383088E-2,1.5896359E-1,6.0516965E-1,-1.6859141E-1,-2.7200636E-1,7.749057E-2,-2.3925377E-1,3.3770524E-2,6.1211795E-1,-1.7334633E-1,-8.430714E-2,-3.0170703E-1,2.2971685E-1,-3.002664E-1,1.3270712E-1,-1.9358659E-1,2.3199014E-1,-1.5353253E-1,-2.7658692E-1],"split_indices":[6,6,6,6,7,3,6,6,4,7,7,5,3,5,5,0,2,3,4,7,3,6,7,0,7,3,5,1,0,1,6,0,5,0,0,3,7,6,4,4,6,6,2,6,1,2,7,0,6,5,7,6,5,7,1,0,1,0,5,1,3,3,0,0,0,0,0,0,0,0,0,0,0,0,0,0,0,0,0,0,0,0,0,0,0,0,0,0,0,0,0,0,0,0,0,0,0,0,0,0,0,0,0,0,0,0,0,0,0,0,0,0,0,0,0,0,0,0,0,0,0,0,0,0,0,0,0],"split_type":[0,0,0,0,0,0,0,0,0,0,0,0,0,0,0,0,0,0,0,0,0,0,0,0,0,0,0,0,0,0,0,0,0,0,0,0,0,0,0,0,0,0,0,0,0,0,0,0,0,0,0,0,0,0,0,0,0,0,0,0,0,0,0,0,0,0,0,0,0,0,0,0,0,0,0,0,0,0,0,0,0,0,0,0,0,0,0,0,0,0,0,0,0,0,0,0,0,0,0,0,0,0,0,0,0,0,0,0,0,0,0,0,0,0,0,0,0,0,0,0,0,0,0,0,0,0,0],"sum_hessian":[1.2569086E5,1.0481601E5,2.0874848E4,6.7937086E4,3.687892E4,1.158886E4,9.285987E3,3.0042195E4,3.789489E4,8.899539E3,2.7979385E4,6.6258135E3,4.9630474E3,5.24429E3,4.041697E3,1.7719793E4,1.2322402E4,4.1308745E3,3.3764016E4,6.2806133E3,2.618926E3,5.084752E2,2.7470908E4,5.4993447E3,1.1264688E3,4.705589E3,2.5745822E2,4.1062686E3,1.1380215E3,2.9808357E3,1.0608613E3,1.258135E3,1.6461658E4,1.641822E3,1.0680581E4,4.6524854E2,3.6656257E3,4.8553326E2,3.327848E4,5.718242E3,5.623709E2,4.6840155E2,2.1505247E3,4.7344965E2,3.5025543E1,1.5412028E3,2.5929705E4,3.1420514E2,5.1851396E3,2.4893394E2,8.775348E2,2.0041122E3,2.7014768E3,2.3995224E2,1.7505978E1,1.8684076E3,2.2378608E3,7.796252E1,1.060059E3,8.917638E2,2.089072E3,3.7870822E2,6.821531E2,1.1814369E2,1.1399913E3,1.1800305E3,1.5281628E4,1.2021772E2,1.5216042E3,7.6482245E2,9.915758E3,4.559166E2,9.331942E0,2.0096877E3,1.655938E3,3.4705298E2,1.3848029E2,1.722533E3,3.155595E4,2.4793413E3,3.2389011E3,5.202704E2,4.2100502E1,3.070119E2,1.6138965E2,8.306237E2,1.3199008E3,1.7789351E2,2.9555615E2,2.5505447E1,9.520099E0,6.1941943E2,9.217833E2,3.7619022E2,2.5553516E4,2.69731E2,4.447413E1,2.9998413E3,2.1852983E3,6.522982E1,1.8370412E2,1.7770752E1,8.5976404E2,4.0207217E2,1.6020399E3,1.9242169E3,7.7725995E2,1.6114116E2,7.881109E1,4.8338714E0,1.2672107E1,1.0904228E2,1.7593654E3,3.4149963E2,1.8963613E3,6.785314E1,1.0109369E1,7.2621454E2,3.3384448E2,8.1646075E2,7.530299E1,2.0880361E3,1.0358208E0,3.7217752E2,6.5307045E0,3.6908176E1,6.452449E2],"tree_param":{"num_deleted":"0","num_feature":"8","num_nodes":"127","size_leaf_vector":"0"}},{"base_weights":[-8.416129E-3,6.5503225E-2,-5.3514904E-1,1.475997E-1,-9.200036E-2,-3.903198E-1,-7.768554E-1,2.3969041E-1,8.42744E-2,-2.2299366E-1,-1.8073902E-2,-5.315456E-1,-2.4706729E-1,-6.8367606E-1,-8.829017E-1,8.593413E-2,2.602155E-1,3.1051353E-1,6.944833E-2,-1.4742014E-1,-4.7769934E-1,3.2722735E-1,-4.0139213E-2,-5.8079314E-1,-1.3404073E-1,3.4200606E-1,-2.8478193E-1,-7.734848E-1,-4.8883337E-1,-9.2550415E-1,-7.5347674E-1,3.5278788E-1,1.0739715E-2,6.3310854E-2,2.7442774E-1,2.5265318E-1,6.372187E-1,-4.417501E-2,9.6177615E-2,-2.0964544E-1,4.6297577E-1,8.378146E-2,-5.119236E-1,2.0472945E-1,8.815143E-1,-1.8916845E-1,-3.5096682E-3,-4.8420024E-1,-7.143209E-1,6.336746E-2,-4.544886E-1,1.461375E-1,1.2376169E0,-3.2350007E-1,9.572953E-2,-9.1581446E-1,-6.782188E-1,1.0667352E-1,-5.3606474E-1,-7.937348E-1,-9.7742265E-1,-2.5853336E-1,-7.8387403E-1,6.3757807E-1,3.0510336E-1,5.002333E-2,-4.2293122E-1,1.5912506E-1,-1.12291045E-1,4.4603863E-1,2.6168352E-1,-9.171734E-3,3.046011E-1,1.075422E0,4.1241053E-1,1.9557942E-2,-3.2513034E-1,-2.9043918E-2,1.2649542E-1,-1.6557159E-1,-8.7536544E-1,2.7481704E0,-5.0008704E-4,-1.3254072E-1,9.9084926E-1,-4.1019407E-1,-6.5230936E-1,-1.5935454E-1,2.5194418E-1,1.487603E0,4.1212633E-1,-1.02591E-1,-9.5020974E-1,2.915107E0,-2.3444422E-2,1.5605627E-1,-5.072631E-1,-4.5102444E-1,-7.755321E-1,-4.0883046E-2,4.9072223E0,-1.015198E0,-3.1091946E-1,6.641557E-2,7.3151934E-1,9.479169E-1,2.2556753E0,-1.15263745E-1,-4.3847847E-1,-1.07218E-1,5.7423913E-1,6.727015E-1,-9.226024E-1,7.9612005E-1,-8.452136E-1,-8.2530476E-2,2.3120923E0,-7.8278947E-1,-4.2876494E-1,-9.64956E-1,3.6301786E-1,-9.787955E-1,3.598434E-1,3.8492087E-1,-8.610858E-1,-5.732068E-1,-8.5412127E-1],"categories":[],"categories_nodes":[],"categories_segments":[],"categories_sizes":[],"default_left":[1,1,1,1,1,1,1,1,1,1,1,1,1,1,1,1,1,1,1,1,1,1,1,1,1,1,1,1,1,1,1,1,1,1,1,1,1,1,1,1,1,1,1,1,1,1,1,1,1,1,1,1,1,1,1,1,1,1,1,1,1,1,1,0,0,0,0,0,0,0,0,0,0,0,0,0,0,0,0,0,0,0,0,0,0,0,0,0,0,0,0,0,0,0,0,0,0,0,0,0,0,0,0,0,0,0,0,0,0,0,0,0,0,0,0,0,0,0,0,0,0,0,0,0,0,0,0],"id":8,"left_children":[1,3,5,7,9,11,13,15,17,19,21,23,25,27,29,31,33,35,37,39,41,43,45,47,49,51,53,55,57,59,61,63,65,67,69,71,73,75,77,79,81,83,85,87,89,91,93,95,97,99,101,103,105,107,109,111,113,115,117,119,121,123,125,-1,-1,-1,-1,-1,-1,-1,-1,-1,-1,-1,-1,-1,-1,-1,-1,-1,-1,-1,-1,-1,-1,-1,-1,-1,-1,-1,-1,-1,-1,-1,-1,-1,-1,-1,-1,-1,-1,-1,-1,-1,-1,-1,-1,-1,-1,-1,-1,-1,-1,-1,-1,-1,-1,-1,-1,-1,-1,-1,-1,-1,-1,-1,-1],"loss_changes":[4.6520674E3,1.3548289E3,5.1442334E2,4.0164502E2,3.476595E2,1.8592383E2,5.3825928E1,8.85426E1,1.3687775E2,2.4923492E2,1.7487866E2,9.056311E1,1.0156979E2,5.100598E1,1.3488892E1,6.6345055E1,6.926709E1,4.7283585E1,1.1633925E2,3.795188E2,5.6982605E1,9.3425644E1,1.17764114E2,5.2786377E1,3.2398796E1,4.810937E1,6.328009E1,2.6609497E1,2.6192047E1,1.243689E1,9.464386E0,9.676369E0,4.3986027E1,2.80822E1,5.0384644E1,2.9026398E1,3.66922E1,1.3064278E2,1.17732635E2,2.6586038E2,9.791234E2,3.3703304E1,3.9620422E1,1.9471588E1,7.0289185E1,2.803423E2,1.00765393E3,3.542096E1,2.7484375E1,1.6053984E2,1.53969345E1,1.0545679E1,1.2391853E1,9.32504E1,3.8640785E1,9.272644E0,2.9782007E2,2.9030704E1,2.245996E1,1.0952051E2,2.8878174E0,1.53247795E1,8.461792E0,0E0,0E0,0E0,0E0,0E0,0E0,0E0,0E0,0E0,0E0,0E0,0E0,0E0,0E0,0E0,0E0,0E0,0E0,0E0,0E0,0E0,0E0,0E0,0E0,0E0,0E0,0E0,0E0,0E0,0E0,0E0,0E0,0E0,0E0,0E0,0E0,0E0,0E0,0E0,0E0,0E0,0E0,0E0,0E0,0E0,0E0,0E0,0E0,0E0,0E0,0E0,0E0,0E0,0E0,0E0,0E0,0E0,0E0,0E0,0E0,0E0,0E0,0E0,0E0],"parents":[2147483647,0,0,1,1,2,2,3,3,4,4,5,5,6,6,7,7,8,8,9,9,10,10,11,11,12,12,13,13,14,14,15,15,16,16,17,17,18,18,19,19,20,20,21,21,22,22,23,23,24,24,25,25,26,26,27,27,28,28,29,29,30,30,31,31,32,32,33,33,34,34,35,35,36,36,37,37,38,38,39,39,40,40,41,41,42,42,43,43,44,44,45,45,46,46,47,47,48,48,49,49,50,50,51,51,52,52,53,53,54,54,55,55,56,56,57,57,58,58,59,59,60,60,61,61,62,62],"right_children":[2,4,6,8,10,12,14,16,18,20,22,24,26,28,30,32,34,36,38,40,42,44,46,48,50,52,54,56,58,60,62,64,66,68,70,72,74,76,78,80,82,84,86,88,90,92,94,96,98,100,102,104,106,108,110,112,114,116,118,120,122,124,126,-1,-1,-1,-1,-1,-1,-1,-1,-1,-1,-1,-1,-1,-1,-1,-1,-1,-1,-1,-1,-1,-1,-1,-1,-1,-1,-1,-1,-1,-1,-1,-1,-1,-1,-1,-1,-1,-1,-1,-1,-1,-1,-1,-1,-1,-1,-1,-1,-1,-1,-1,-1,-1,-1,-1,-1,-1,-1,-1,-1,-1,-1,-1,-1],"split_conditions":[5.6557375E-1,1.3934426E-1,8.770492E-1,2.4590163E-2,4.5279637E-3,1.1657277E-2,9.7540987E-1,1.3423644E-1,6.5E0,1.6177602E-2,6.5E0,5.079052E-3,6.5E0,3.0168751E-3,8.565966E-3,6.720262E-5,4.635672E-4,5.5E0,1.860318E-3,5.8849175E-3,6.5E0,5.5E0,8.889869E-2,7.1311474E-1,6.1487734E-2,5.5E0,2.9750466E-2,1.03405975E-2,6.5E0,1.1815447E-2,6.5E0,5.557997E-6,4.4438187E-2,5.300066E-6,6.5E0,1.226098E-3,3.0050874E-3,2.221606E-2,8.329747E-4,5.88159E-3,4.4380464E-2,5.5E0,7.6531274E-3,2.5E0,1.031987E-2,8.8885926E-2,9.999698E-2,4.338108E-4,1.5295062E-2,5.415913E-2,6.1803978E-2,4.122958E-2,3.977603E-2,1.1761352E-2,1.04031805E-2,8.455849E-6,1.0348379E-2,4.443041E-2,9.926418E-3,1.16819395E-2,1.9609395E-1,3.0764273E-1,9.918033E-1,1.9127344E-1,9.153101E-2,1.50069995E-2,-1.2687938E-1,4.773752E-2,-3.3687316E-2,1.338116E-1,7.850506E-2,-2.7515201E-3,9.1380335E-2,3.2262662E-1,1.23723164E-1,5.867383E-3,-9.7539105E-2,-8.713176E-3,3.7948627E-2,-4.967148E-2,-2.6260963E-1,8.2445115E-1,-1.5002611E-4,-3.9762218E-2,2.972548E-1,-1.2305822E-1,-1.9569282E-1,-4.7806364E-2,7.558326E-2,4.462809E-1,1.2363791E-1,-3.0777302E-2,-2.8506294E-1,8.7453216E-1,-7.0333267E-3,4.681688E-2,-1.5217894E-1,-1.3530734E-1,-2.3265965E-1,-1.2264914E-2,1.4721668E0,-3.045594E-1,-9.3275845E-2,1.9924672E-2,2.1945581E-1,2.843751E-1,6.767026E-1,-3.4579124E-2,-1.3154355E-1,-3.21654E-2,1.7227174E-1,2.0181045E-1,-2.7678072E-1,2.3883602E-1,-2.535641E-1,-2.4759144E-2,6.936277E-1,-2.3483685E-1,-1.2862949E-1,-2.894868E-1,1.0890536E-1,-2.9363868E-1,1.0795303E-1,1.15476266E-1,-2.5832576E-1,-1.7196204E-1,-2.562364E-1],"split_indices":[6,6,6,6,1,1,6,4,0,7,0,5,0,5,5,3,5,0,3,7,0,0,4,6,2,0,1,3,0,1,0,3,4,5,0,3,5,4,5,7,4,0,2,0,3,4,4,1,2,2,2,7,7,1,5,3,3,5,7,1,3,4,6,0,0,0,0,0,0,0,0,0,0,0,0,0,0,0,0,0,0,0,0,0,0,0,0,0,0,0,0,0,0,0,0,0,0,0,0,0,0,0,0,0,0,0,0,0,0,0,0,0,0,0,0,0,0,0,0,0,0,0,0,0,0,0,0],"split_type":[0,0,0,0,0,0,0,0,0,0,0,0,0,0,0,0,0,0,0,0,0,0,0,0,0,0,0,0,0,0,0,0,0,0,0,0,0,0,0,0,0,0,0,0,0,0,0,0,0,0,0,0,0,0,0,0,0,0,0,0,0,0,0,0,0,0,0,0,0,0,0,0,0,0,0,0,0,0,0,0,0,0,0,0,0,0,0,0,0,0,0,0,0,0,0,0,0,0,0,0,0,0,0,0,0,0,0,0,0,0,0,0,0,0,0,0,0,0,0,0,0,0,0,0,0,0,0],"sum_hessian":[1.1947869E5,1.047758E5,1.4702894E4,6.88755E4,3.59003E4,9.195568E3,5.5073247E3,2.8062652E4,4.0812844E4,1.2950596E4,2.2949705E4,4.6291763E3,4.5663926E3,2.9354712E3,2.5718535E3,3.305545E3,2.4757107E4,2.5088584E3,3.830399E4,9.988496E3,2.9620996E3,1.3776083E3,2.1572096E4,4.1184707E3,5.107055E2,2.7428036E2,4.2921123E3,2.0072843E3,9.281867E2,1.9303088E3,6.4154456E2,7.258654E2,2.5796794E3,1.6669982E3,2.309011E4,2.1328909E3,3.7596738E2,7.2946323E3,3.1009354E4,9.06504E3,9.234565E2,1.7009451E2,2.7920051E3,1.129383E3,2.4822525E2,4.2552446E3,1.7316852E4,2.392432E3,1.726039E3,3.1651956E2,1.9418593E2,2.2601454E2,4.8265823E1,3.8958484E3,3.9626376E2,8.0138446E2,1.2058999E3,6.811498E1,8.600717E2,5.501961E2,1.3801127E3,3.767102E1,6.0387354E2,1.0233155E2,6.235339E2,2.3662224E3,2.1345705E2,1.078582E3,5.884162E2,1.5938363E3,2.1496271E4,3.532558E2,1.7796351E3,1.2619679E2,2.4977058E2,5.9466113E3,1.348021E3,6.044366E3,2.4964988E4,8.503327E3,5.617122E2,1.5488036E2,7.685761E2,1.3803024E2,3.2064278E1,1.6211628E3,1.1708424E3,1.2937408E2,1.0000089E3,1.0739028E2,1.4083498E2,3.8216245E3,4.3362015E2,1.1649004E2,1.7200361E4,8.298169E1,2.3094502E3,3.2715784E2,1.3988811E3,3.1082153E2,5.69801E0,3.8347725E1,1.5583821E2,1.9990355E2,2.6110992E1,3.90771E1,9.1887245E0,1.3865973E3,2.5092512E3,2.787957E2,1.1746807E2,2.992441E0,7.98392E2,1.2230901E2,1.0835908E3,6.3619602E1,4.4953794E0,2.5876755E2,6.013042E2,4.7940146E2,7.079465E1,1.3789651E3,1.1476209E0,1.8391872E1,1.9279148E1,1.5329901E2,4.5057455E2],"tree_param":{"num_deleted":"0","num_feature":"8","num_nodes":"127","size_leaf_vector":"0"}},{"base_weights":[-7.864914E-3,4.3925546E-2,-4.8642597E-1,1.075091E-1,-7.137076E-2,-3.5141116E-1,-7.195146E-1,2.2474241E-1,7.250218E-2,-1.5611115E-1,4.4788616E-3,-4.964641E-1,-2.200813E-1,-6.409327E-1,-8.676725E-1,4.0227136E-1,2.1247335E-1,-5.810482E-2,8.8159524E-2,-1.2820047E-1,-8.9395916E-1,3.0475814E0,-1.8329807E-2,-5.942414E-1,-2.6456523E-1,7.361601E0,-2.6251096E-1,-7.1524495E-1,-3.752569E-1,-7.346222E-1,-9.084059E-1,7.7204034E-2,4.3906882E-1,8.0445275E-2,2.2687142E-1,1.5434548E-1,-1.2441876E-1,1.4008033E0,7.2127566E-2,-1.536574E-1,2.3722498E0,-5.3468525E-2,-9.132045E-1,2.3191733E0,4.0809956E0,-8.788815E-1,6.628139E-3,-1.4611995E-1,-6.2466973E-1,-1.8916272E-1,-9.357775E-1,1.0835316E1,5.2023616E0,-8.988314E-1,-2.1751645E-1,-8.517339E-1,-6.153321E-1,-4.8938394E-1,-9.7109094E-2,-9.0858144E-1,4.659422E-1,-9.5653826E-1,-7.498353E-1,-1.3292795E0,1.2843962E-1,-2.0413093E-2,4.5276865E-1,-2.9665524E-1,1.5120594E-1,8.626515E-2,2.3514093E-1,4.8588616E-1,8.8647544E-2,-4.054402E-2,-2.63954E-1,1.3136884E0,2.1096563E0,-2.679162E-1,8.954022E-2,-1.2466718E-1,-8.1961304E-1,2.147748E0,3.7102923E0,1.2801758E0,-8.309375E-1,-9.1936034E-1,8.93019E-1,1.6744766E0,2.501196E0,4.742406E0,3.0150485E0,-4.6326628E-1,-9.011023E-1,3.0889027E0,-1.5519948E-2,-2.9168186E-1,5.4125E-1,-4.9489087E-1,-7.2539073E-1,-2.5455388E-1,4.8973055E0,9.0520404E-2,-9.519582E-1,3.1504161E0,6.1890397E0,-5.320118E-1,-9.2457217E-1,5.429497E0,-2.3069511E-1,-8.575554E-1,2.4996255E-1,2.8475386E-1,-7.927827E-1,4.5553178E-1,-5.0955963E-1,-2.5097173E-1,6.35904E-1,-9.182421E-1,9.689791E-1,1.1697478E0,9.2011936E-2,-9.57587E-1,-8.443865E-2,9.559937E-2,-7.7666944E-1],"categories":[],"categories_nodes":[],"categories_segments":[],"categories_sizes":[],"default_left":[1,1,1,1,1,1,1,1,1,1,1,1,1,1,1,1,1,1,1,1,1,1,1,1,1,1,1,1,1,1,1,1,1,1,1,1,1,1,1,1,1,1,1,1,1,1,1,1,1,1,1,0,1,1,1,1,1,1,1,1,1,1,1,0,0,0,0,0,0,0,0,0,0,0,0,0,0,0,0,0,0,0,0,0,0,0,0,0,0,0,0,0,0,0,0,0,0,0,0,0,0,0,0,0,0,0,0,0,0,0,0,0,0,0,0,0,0,0,0,0,0,0,0,0,0],"id":9,"left_children":[1,3,5,7,9,11,13,15,17,19,21,23,25,27,29,31,33,35,37,39,41,43,45,47,49,51,53,55,57,59,61,63,65,67,69,71,73,75,77,79,81,83,85,87,89,91,93,95,97,99,101,-1,103,105,107,109,111,113,115,117,119,121,123,-1,-1,-1,-1,-1,-1,-1,-1,-1,-1,-1,-1,-1,-1,-1,-1,-1,-1,-1,-1,-1,-1,-1,-1,-1,-1,-1,-1,-1,-1,-1,-1,-1,-1,-1,-1,-1,-1,-1,-1,-1,-1,-1,-1,-1,-1,-1,-1,-1,-1,-1,-1,-1,-1,-1,-1,-1,-1,-1,-1,-1,-1],"loss_changes":[2.8519802E3,7.611987E2,3.5337622E2,2.7464343E2,2.3722974E2,1.3547394E2,4.741748E1,3.34328E1,1.0539734E2,3.5888733E2,1.3519231E3,7.650867E1,1.2041283E3,5.2964844E1,7.057007E0,1.1851761E1,2.734784E1,7.775361E1,9.6837573E2,1.0696387E3,1.0226166E1,9.961035E1,4.1523004E2,3.2328125E1,5.066726E1,9.988574E1,1.0623459E2,2.8193481E1,1.8727417E1,7.1284515E1,7.5788574E0,7.539482E0,5.6266785E0,3.7858833E1,1.50720825E1,2.8556204E1,4.920951E1,3.151538E1,2.692355E2,3.2095834E2,4.29057E1,1.690882E1,7.7250366E0,6.0576477E0,2.701056E1,4.6148987E0,1.2827065E3,1.541434E1,2.8739075E1,3.0206012E2,1.7667999E0,0E0,1.04062805E1,1.8230896E0,2.59724E2,5.9058228E0,1.949967E2,8.22245E0,1.9707247E1,6.2713165E0,1.1367258E1,6.784668E-1,5.9213104E0,0E0,0E0,0E0,0E0,0E0,0E0,0E0,0E0,0E0,0E0,0E0,0E0,0E0,0E0,0E0,0E0,0E0,0E0,0E0,0E0,0E0,0E0,0E0,0E0,0E0,0E0,0E0,0E0,0E0,0E0,0E0,0E0,0E0,0E0,0E0,0E0,0E0,0E0,0E0,0E0,0E0,0E0,0E0,0E0,0E0,0E0,0E0,0E0,0E0,0E0,0E0,0E0,0E0,0E0,0E0,0E0,0E0,0E0,0E0,0E0,0E0,0E0],"parents":[2147483647,0,0,1,1,2,2,3,3,4,4,5,5,6,6,7,7,8,8,9,9,10,10,11,11,12,12,13,13,14,14,15,15,16,16,17,17,18,18,19,19,20,20,21,21,22,22,23,23,24,24,25,25,26,26,27,27,28,28,29,29,30,30,31,31,32,32,33,33,34,34,35,35,36,36,37,37,38,38,39,39,40,40,41,41,42,42,43,43,44,44,45,45,46,46,47,47,48,48,49,49,50,50,52,52,53,53,54,54,55,55,56,56,57,57,58,58,59,59,60,60,61,61,62,62],"right_children":[2,4,6,8,10,12,14,16,18,20,22,24,26,28,30,32,34,36,38,40,42,44,46,48,50,52,54,56,58,60,62,64,66,68,70,72,74,76,78,80,82,84,86,88,90,92,94,96,98,100,102,-1,104,106,108,110,112,114,116,118,120,122,124,-1,-1,-1,-1,-1,-1,-1,-1,-1,-1,-1,-1,-1,-1,-1,-1,-1,-1,-1,-1,-1,-1,-1,-1,-1,-1,-1,-1,-1,-1,-1,-1,-1,-1,-1,-1,-1,-1,-1,-1,-1,-1,-1,-1,-1,-1,-1,-1,-1,-1,-1,-1,-1,-1,-1,-1,-1,-1,-1,-1,-1,-1],"split_conditions":[6.147541E-1,1.3934426E-1,8.9344263E-1,8.196721E-3,1.0000092E-1,1.3727253E-2,9.918033E-1,6.5E0,5.106071E-7,9.999698E-2,1.11092865E-1,3.0297008E-3,1.5681908E-2,7.39684E-3,1.4430244E-1,2.5E0,1.0006388E-1,4.5094028E-5,1.1108542E-2,8.889869E-2,1.0702629E-3,3.52459E-1,1.1111727E-1,6.5E0,1.3713866E-2,3.077246E-3,1.5703399E-2,1.574011E-2,3.0070376E-2,1.3497525E-1,1.1117572E-2,5E-1,3.2278997E-5,9.538933E-4,2.3994653E-4,5.5564356E-6,1.611748E-2,1.22950815E-1,1.1112872E-2,8.8885926E-2,4.8360658E-1,1.7213115E-1,3.1337637E-2,6.162335E-3,3.080682E-3,6.5E0,1.22212246E-1,5.5E0,7.1311474E-1,1.1803889E-2,8.3333336E-2,3.2505949E0,6.803279E-1,9.717262E-2,1.6194094E-2,2.860797E-1,1.7519448E-2,7.523698E-3,4.3836422E-2,7.472434E-2,1.6143792E-6,1.9609395E-1,1.3858398E-2,-3.987839E-1,3.853189E-2,-6.1239284E-3,1.358306E-1,-8.8996574E-2,4.5361783E-2,2.5879545E-2,7.054228E-2,1.4576586E-1,2.6594264E-2,-1.2163206E-2,-7.918621E-2,3.9410654E-1,6.328969E-1,-8.037487E-2,2.6862068E-2,-3.7400156E-2,-2.4588393E-1,6.443244E-1,1.1130878E0,3.8405275E-1,-2.4928126E-1,-2.7580813E-1,2.679057E-1,5.02343E-1,7.503588E-1,1.4227219E0,9.045146E-1,-1.389799E-1,-2.703307E-1,9.2667085E-1,-4.6559847E-3,-8.750456E-2,1.62375E-1,-1.4846727E-1,-2.1761723E-1,-7.636617E-2,1.4691917E0,2.7156122E-2,-2.8558746E-1,9.4512486E-1,1.856712E0,-1.5960355E-1,-2.7737167E-1,1.6288491E0,-6.920854E-2,-2.5726664E-1,7.498877E-2,8.542616E-2,-2.3783483E-1,1.3665953E-1,-1.528679E-1,-7.529152E-2,1.907712E-1,-2.7547264E-1,2.9069376E-1,3.5092437E-1,2.7603582E-2,-2.8727612E-1,-2.5331596E-2,2.8679812E-2,-2.3300084E-1],"split_indices":[6,6,6,6,4,7,6,0,4,4,4,5,7,5,4,0,4,3,4,4,1,6,4,0,7,5,7,7,1,4,5,0,7,1,5,3,7,6,4,4,6,6,1,7,5,0,4,0,6,7,4,0,6,4,7,2,7,5,5,3,5,3,3,0,0,0,0,0,0,0,0,0,0,0,0,0,0,0,0,0,0,0,0,0,0,0,0,0,0,0,0,0,0,0,0,0,0,0,0,0,0,0,0,0,0,0,0,0,0,0,0,0,0,0,0,0,0,0,0,0,0,0,0,0,0],"split_type":[0,0,0,0,0,0,0,0,0,0,0,0,0,0,0,0,0,0,0,0,0,0,0,0,0,0,0,0,0,0,0,0,0,0,0,0,0,0,0,0,0,0,0,0,0,0,0,0,0,0,0,0,0,0,0,0,0,0,0,0,0,0,0,0,0,0,0,0,0,0,0,0,0,0,0,0,0,0,0,0,0,0,0,0,0,0,0,0,0,0,0,0,0,0,0,0,0,0,0,0,0,0,0,0,0,0,0,0,0,0,0,0,0,0,0,0,0,0,0,0,0,0,0,0,0],"sum_hessian":[1.15067414E5,1.0383155E5,1.1235868E4,6.692426E4,3.690729E4,7.1163086E3,4.1195596E3,1.5387668E4,5.153659E4,1.7431492E4,1.9475797E4,3.380162E3,3.7361467E3,2.695311E3,1.4242485E3,9.9264624E2,1.4395021E4,5.516611E3,4.6019977E4,1.6797273E4,6.3421906E2,1.4390248E2,1.9331895E4,2.3765547E3,1.0036074E3,1.9832375E1,3.7163142E3,2.1048662E3,5.904448E2,3.382934E2,1.0859552E3,1.01255684E2,8.9139056E2,1.4161093E3,1.2978912E4,1.3120052E3,4.2046055E3,5.5424005E2,4.546574E4,1.6628914E4,1.6835948E2,1.428168E1,6.199374E2,8.631032E1,5.759216E1,5.43902E2,1.8787994E4,1.5148097E2,2.2250737E3,9.0340295E2,1.002045E2,6.0619645E0,1.3770411E1,2.4417468E2,3.4721396E3,8.8641986E2,1.2184464E3,4.1812442E2,1.723204E2,2.9569153E2,4.2601875E1,8.292218E2,2.567333E2,2.6821702E0,9.857351E1,2.5793867E1,8.655967E2,2.2323643E2,1.1928728E3,7.2156683E2,1.2257346E4,2.1593033E2,1.096075E3,2.626878E3,1.5777278E3,4.961221E2,5.8117966E1,2.2140562E3,4.325168E4,1.5936363E4,6.9255096E2,1.4640091E2,2.195856E1,5.021453E0,9.260227E0,6.183211E2,1.6162992E0,2.124896E1,6.5061356E1,3.341157E1,2.4180586E1,2.8712585E1,5.151894E2,1.3305255E2,1.8654941E4,1.25483444E2,2.5997532E1,9.748692E2,1.2502045E3,8.928742E2,1.0528752E1,1.4839988E0,9.87205E1,5.832923E0,7.937487E0,1.743171E1,2.2674297E2,7.1272955E0,3.4650122E3,8.8198096E2,4.438852E0,2.0055624E2,1.01789014E3,8.289988E0,4.0983444E2,1.4296834E2,2.9352064E1,2.946862E2,1.0053179E0,1.4042691E1,2.8559181E1,8.281279E2,1.0938795E0,7.8192077E0,2.4891411E2],"tree_param":{"num_deleted":"0","num_feature":"8","num_nodes":"125","size_leaf_vector":"0"}},{"base_weights":[-7.290279E-3,2.6557289E-2,-4.6729597E-1,1.00171246E-1,-3.6408525E-2,-3.690373E-1,-7.3725575E-1,1.6814093E-1,7.0472114E-2,2.2669846E-1,-5.3080373E-2,-5.459814E-1,-2.5621215E-1,-8.12055E-1,-5.5480254E-1,1.6883445E-1,-2.0153177E0,2.2651012E-1,5.9901442E-2,1.13703445E-1,7.390446E-1,-1.2558946E-1,9.087139E-3,-6.271228E-1,-2.8331342E-1,9.6827105E-2,-3.5578012E-1,-6.5812474E-1,-8.8957745E-1,-3.6216444E-1,-6.979449E-1,3.1877533E-1,1.5898468E-1,-2.8966851E0,-6.405654E-2,-1.6904649E-1,2.631134E-1,6.1120875E-2,-9.382219E-1,-7.4450177E-1,1.2308332E-1,1.0001879E0,4.1642648E-1,-7.101424E-2,-2.746906E-1,3.6039907E-3,3.9944905E-1,-1.8747018E-1,-6.7896587E-1,2.7015716E-1,-3.4096673E-1,3.5648978E-1,-1.4053547E-1,-5.4049534E-1,-1.148961E-1,-8.9593214E-1,1.8894204E-1,-8.9819777E-1,-2.3108575E-1,-5.216554E-1,2.0454517E-2,9.81875E-1,-7.1067834E-1,5.3847544E-2,3.5157776E-1,1.6037752E-1,-7.6615894E-1,3.2681257E-1,-3.0635014E-1,2.6652384E-1,-8.149223E-1,-7.434636E-3,7.663212E-2,1.0079951E0,-1.1916733E0,-1.5457374E-1,-1.207426E0,1.7446925E-1,4.357214E-3,4.144374E-1,1.0753938E0,8.477102E-1,1.7302544E-1,-9.056511E-2,2.5949547E0,-1.02250926E-1,-4.6785417E-1,-2.9349497E-1,1.2297754E-2,5.7286817E-1,-4.3823022E-1,-3.4478897E-1,9.506906E0,-5.9935015E-1,-8.10394E-1,1.1236539E0,-7.902315E-2,-2.90915E-1,-7.4050415E-1,2.1030454E-1,1.348866E0,2.0157914E0,-1.8382877E-1,-6.913379E-1,-3.1829214E-1,-1.5918083E-1,5.4460895E-1,-8.981111E-1,-1.4159317E-1,5.7168967E-1,-2.7322677E-1,-9.258926E-1,-7.734606E-1,1.6054211E0,-7.630734E-1,-5.485428E-1,1.1424528E0,1.4263104E0,-1.3386065E-1,-5.845682E-1,-8.1661445E-1],"categories":[],"categories_nodes":[],"categories_segments":[],"categories_sizes":[],"default_left":[1,1,1,1,1,1,1,1,1,1,1,1,1,1,1,1,1,1,1,1,1,1,1,1,1,1,1,1,1,1,1,1,1,0,0,1,1,1,1,1,1,1,1,1,1,1,1,1,1,1,1,1,1,1,1,1,1,1,1,1,1,0,1,0,0,0,0,0,0,0,0,0,0,0,0,0,0,0,0,0,0,0,0,0,0,0,0,0,0,0,0,0,0,0,0,0,0,0,0,0,0,0,0,0,0,0,0,0,0,0,0,0,0,0,0,0,0,0,0,0,0],"id":10,"left_children":[1,3,5,7,9,11,13,15,17,19,21,23,25,27,29,31,33,35,37,39,41,43,45,47,49,51,53,55,57,59,61,63,65,-1,-1,67,69,71,73,75,77,79,81,83,85,87,89,91,93,95,97,99,101,103,105,107,109,111,113,115,117,-1,119,-1,-1,-1,-1,-1,-1,-1,-1,-1,-1,-1,-1,-1,-1,-1,-1,-1,-1,-1,-1,-1,-1,-1,-1,-1,-1,-1,-1,-1,-1,-1,-1,-1,-1,-1,-1,-1,-1,-1,-1,-1,-1,-1,-1,-1,-1,-1,-1,-1,-1,-1,-1,-1,-1,-1,-1,-1,-1],"loss_changes":[1.7394688E3,4.8234793E2,2.028352E2,9.683194E1,2.460418E2,1.1197046E2,2.7420654E1,2.2429565E1,5.505803E1,1.9341898E2,2.3776817E2,4.6405823E1,1.2064041E2,1.6673096E1,1.6208313E1,2.1487732E1,7.913122E0,3.0710297E1,3.8119118E1,2.2145622E1,5.0451447E1,1.9810797E2,6.078514E1,3.7914185E1,1.661015E1,4.661923E1,1.1902728E2,9.85235E1,5.236267E0,1.5667225E1,8.000336E0,7.7846985E0,1.77594E1,0E0,0E0,1.235512E1,7.346054E0,3.3214317E1,2.0053837E1,7.9410686E0,1.6538116E1,1.4222107E1,2.83866E1,9.293355E2,2.1725351E2,7.2343376E1,5.739624E1,2.738748E2,1.5132141E1,1.4809201E1,9.168636E0,5.2104137E1,3.7287956E1,5.0545135E1,3.405008E1,4.9975586E-1,1.9234838E1,2.5528564E0,1.46478E1,8.730579E0,1.6775084E1,0E0,4.057083E0,0E0,0E0,0E0,0E0,0E0,0E0,0E0,0E0,0E0,0E0,0E0,0E0,0E0,0E0,0E0,0E0,0E0,0E0,0E0,0E0,0E0,0E0,0E0,0E0,0E0,0E0,0E0,0E0,0E0,0E0,0E0,0E0,0E0,0E0,0E0,0E0,0E0,0E0,0E0,0E0,0E0,0E0,0E0,0E0,0E0,0E0,0E0,0E0,0E0,0E0,0E0,0E0,0E0,0E0,0E0,0E0,0E0,0E0],"parents":[2147483647,0,0,1,1,2,2,3,3,4,4,5,5,6,6,7,7,8,8,9,9,10,10,11,11,12,12,13,13,14,14,15,15,16,16,17,17,18,18,19,19,20,20,21,21,22,22,23,23,24,24,25,25,26,26,27,27,28,28,29,29,30,30,31,31,32,32,35,35,36,36,37,37,38,38,39,39,40,40,41,41,42,42,43,43,44,44,45,45,46,46,47,47,48,48,49,49,50,50,51,51,52,52,53,53,54,54,55,55,56,56,57,57,58,58,59,59,60,60,62,62],"right_children":[2,4,6,8,10,12,14,16,18,20,22,24,26,28,30,32,34,36,38,40,42,44,46,48,50,52,54,56,58,60,62,64,66,-1,-1,68,70,72,74,76,78,80,82,84,86,88,90,92,94,96,98,100,102,104,106,108,110,112,114,116,118,-1,120,-1,-1,-1,-1,-1,-1,-1,-1,-1,-1,-1,-1,-1,-1,-1,-1,-1,-1,-1,-1,-1,-1,-1,-1,-1,-1,-1,-1,-1,-1,-1,-1,-1,-1,-1,-1,-1,-1,-1,-1,-1,-1,-1,-1,-1,-1,-1,-1,-1,-1,-1,-1,-1,-1,-1,-1,-1,-1],"split_conditions":[6.967213E-1,7.377049E-2,9.590164E-1,8.196721E-3,6.5E0,1.1657277E-2,7.387261E-3,1.690888E-2,6.5E0,5.5E0,9.397341E-3,3.0449973E-3,1.1855967E-2,1.1815447E-2,9.918033E-1,6.5E0,3.2353956E-2,2.5E0,1.7613119E-2,5E-1,1.171584E-2,1.567965E-2,1.1867303E-2,7.6370705E-3,6.5E0,3.1210994E-4,3.0139857E-3,1.16819395E-2,9.308471E-2,3.3414483E-2,1.3743848E-2,2.5E0,3.0602065E-3,-8.6900556E-1,-1.9216962E-2,3.0727064E-2,5.0192513E-3,1.5106112E-3,6.659417E-2,4.6874536E-3,3.360656E-1,5.0063558E-9,3.0104588E-3,1.3725758E-2,2.2215545E-2,4.6196256E-2,2.741644E-2,1.7668262E-4,8.442623E-1,7.678015E-2,1.0313986E-2,9.0983605E-1,5.480417E-6,1.5406784E-1,4.081075E-2,5.3888893E-1,1.09596636E-4,3.887154E-2,9.918033E-1,3.3174735E-1,3.703899E-2,2.9456252E-1,3.0649376E-1,1.6154263E-2,1.0547333E-1,4.8113257E-2,-2.2984768E-1,9.804378E-2,-9.190504E-2,7.995716E-2,-2.4447669E-1,-2.230391E-3,2.2989636E-2,3.0239856E-1,-3.5750198E-1,-4.6372123E-2,-3.622278E-1,5.2340776E-2,1.3071643E-3,1.2433123E-1,3.2261816E-1,2.5431308E-1,5.1907636E-2,-2.7169533E-2,7.7848643E-1,-3.0675279E-2,-1.4035626E-1,-8.8048495E-2,3.6893263E-3,1.7186046E-1,-1.3146907E-1,-1.0343669E-1,2.8520718E0,-1.7980506E-1,-2.4311821E-1,3.3709618E-1,-2.3706947E-2,-8.727451E-2,-2.2215125E-1,6.309137E-2,4.046598E-1,6.0473746E-1,-5.5148635E-2,-2.0740138E-1,-9.548765E-2,-4.7754254E-2,1.633827E-1,-2.6943335E-1,-4.2477954E-2,1.7150691E-1,-8.196803E-2,-2.7776778E-1,-2.320382E-1,4.8162633E-1,-2.2892202E-1,-1.6456285E-1,3.4273586E-1,4.2789313E-1,-4.0158197E-2,-1.7537047E-1,-2.4498434E-1],"split_indices":[6,6,6,6,0,1,5,3,0,0,3,5,1,1,6,0,1,0,7,0,1,7,5,2,0,5,5,1,3,7,2,0,5,0,0,2,5,5,4,1,6,5,5,7,4,2,7,2,6,4,3,6,3,2,3,4,5,3,6,2,7,0,4,0,0,0,0,0,0,0,0,0,0,0,0,0,0,0,0,0,0,0,0,0,0,0,0,0,0,0,0,0,0,0,0,0,0,0,0,0,0,0,0,0,0,0,0,0,0,0,0,0,0,0,0,0,0,0,0,0,0],"split_type":[0,0,0,0,0,0,0,0,0,0,0,0,0,0,0,0,0,0,0,0,0,0,0,0,0,0,0,0,0,0,0,0,0,0,0,0,0,0,0,0,0,0,0,0,0,0,0,0,0,0,0,0,0,0,0,0,0,0,0,0,0,0,0,0,0,0,0,0,0,0,0,0,0,0,0,0,0,0,0,0,0,0,0,0,0,0,0,0,0,0,0,0,0,0,0,0,0,0,0,0,0,0,0,0,0,0,0,0,0,0,0,0,0,0,0,0,0,0,0,0,0],"sum_hessian":[1.1171692E5,1.0406098E5,7.6559434E3,4.7973773E4,5.6087207E4,5.6146987E3,2.0412449E3,1.4586449E4,3.3387324E4,3.341451E3,5.2745754E4,2.184656E3,3.4300427E3,1.4452808E3,5.959642E2,1.4582739E4,3.7091393E0,2.1169993E3,3.1270326E4,2.7386738E3,6.02777E2,2.4347281E4,2.8398475E4,1.6680018E3,5.166541E2,7.545729E2,2.6754697E3,4.872587E2,9.5802203E2,2.5556282E2,3.4040134E2,8.9697156E2,1.3685769E4,2.221285E0,1.4878542E0,1.7900023E2,1.9379991E3,3.1233107E4,3.7219593E1,2.8761793E1,2.709912E3,3.3196643E2,2.7081052E2,1.782449E4,6.5227896E3,2.8006102E4,3.923734E2,1.7642812E2,1.4915737E3,4.839332E1,4.682608E2,3.60119E2,3.944539E2,1.5135795E3,1.1618903E3,3.804052E2,1.06853485E2,9.4528326E2,1.2738752E1,1.8011873E2,7.54441E1,1.9883223E0,3.3841302E2,9.911485E1,7.978567E2,1.36660205E4,1.974811E1,3.8517548E1,1.4048268E2,1.9326378E3,5.361234E0,5.762949E3,2.5470158E4,3.9455113E0,3.3274082E1,1.3232652E1,1.552914E1,1.8909983E3,8.189138E2,3.851314E1,2.934533E2,9.680263E1,1.740079E2,1.7695686E4,1.288052E2,3.447072E3,3.0757173E3,7.9528906E2,2.7210812E4,3.2533716E2,6.703625E1,1.7455981E2,1.8682945E0,9.3234436E2,5.592294E2,1.340636E1,3.498696E1,4.1766614E2,5.059464E1,3.1493793E2,4.518105E1,6.866963E0,3.875869E2,9.003E2,6.132795E2,1.0894912E3,7.239902E1,3.791195E2,1.285709E0,5.8319176E1,4.8534313E1,7.682822E2,1.7700102E2,2.4080384E0,1.0330713E1,1.7791449E2,2.2042391E0,6.646818E0,6.879728E1,1.574715E2,1.8094151E2],"tree_param":{"num_deleted":"0","num_feature":"8","num_nodes":"121","size_leaf_vector":"0"}},{"base_weights":[-6.1901147E-3,3.3171706E-2,-2.615543E-1,-1.0100555E-1,4.80906E-2,-1.8051305E-1,-5.5417705E-1,1.8694505E-1,-1.6899726E-1,1.8542631E0,2.9481845E-2,-5.582498E-1,-1.3928093E-1,-4.7356674E-1,-7.5707346E-1,4.8711258E-1,1.1037348E-1,-7.415468E-2,-3.124824E-1,1.2561362E0,2.7681267E0,-3.4289587E-1,5.0153583E-2,-2.8246653E-1,-6.581853E-1,5.175892E0,-1.6895379E-1,-5.8990645E-1,-2.7918223E-1,-8.211572E-1,-5.7920045E-1,3.4411296E-1,1.8950984E0,9.474088E-2,1.7285995E0,-5.0507788E-2,-2.625492E-1,-2.1965964E-1,-5.509856E-1,1.1615416E0,1.469709E0,3.400152E0,2.227378E0,-1.9085348E-1,-4.8692855E-1,1.8150035E0,3.1577278E-2,-4.5067278E-1,7.504814E0,-4.441472E-1,-7.008328E-1,2.9493563E0,8.649264E0,-6.263381E-1,-1.2324557E-1,-4.4033667E-1,-7.186341E-1,-5.570088E-1,-1.7987172E-1,-6.331012E-1,-8.991869E-1,9.425444E-2,-6.3243943E-1,-2.4177429E-1,3.9539382E-1,1.2771099E0,2.1804433E0,-1.2777528E-1,1.3642398E-1,-1.1187966E-1,3.2952223E-2,-6.9347805E-1,-5.120456E-3,-2.4689727E-1,1.7925292E0,-3.6578944E-1,-6.6064847E-1,1.5718329E0,1.3118216E0,2.9656534E0,4.537272E0,1.9483274E0,2.9801366E0,-2.8570223E-1,4.6267074E-2,-5.925404E-1,-3.3940926E-1,1.6303263E0,3.4417472E0,-5.233822E-1,5.1484335E-2,-3.9128986E-1,-8.342198E-1,-2.4582453E-1,-6.468686E-1,-6.3847524E-1,-8.0480444E-1,1.7731239E0,3.232838E0,9.980647E0,3.2815614E0,-3.8616216E-1,-7.21094E-1,4.7572265E0,-1.6130127E-1,-7.558528E-1,2.3444144E-1,-8.037489E-1,-2.9770148E-1,-5.529323E-2,-6.5534E-1,3.3869964E-1,-2.3384832E-1,-9.075294E-1,2.197135E-3,-9.010179E-1,-3.19735E-2,7.6699597E-1,-7.8949654E-1,-1.0842846E-1,-6.8242E-1],"categories":[],"categories_nodes":[],"categories_segments":[],"categories_sizes":[],"default_left":[1,1,1,1,1,1,1,1,1,1,1,1,1,1,1,1,1,1,1,1,1,1,1,1,1,1,1,1,1,1,1,1,1,1,0,1,1,1,1,0,1,1,1,1,1,1,1,1,0,1,1,1,1,1,1,1,1,1,1,1,1,1,1,0,0,0,0,0,0,0,0,0,0,0,0,0,0,0,0,0,0,0,0,0,0,0,0,0,0,0,0,0,0,0,0,0,0,0,0,0,0,0,0,0,0,0,0,0,0,0,0,0,0,0,0,0,0,0,0,0,0],"id":11,"left_children":[1,3,5,7,9,11,13,15,17,19,21,23,25,27,29,31,33,35,37,39,41,43,45,47,49,51,53,55,57,59,61,63,65,67,-1,69,71,73,75,-1,77,79,81,83,85,87,89,91,-1,93,95,97,99,101,103,105,107,109,111,113,115,117,119,-1,-1,-1,-1,-1,-1,-1,-1,-1,-1,-1,-1,-1,-1,-1,-1,-1,-1,-1,-1,-1,-1,-1,-1,-1,-1,-1,-1,-1,-1,-1,-1,-1,-1,-1,-1,-1,-1,-1,-1,-1,-1,-1,-1,-1,-1,-1,-1,-1,-1,-1,-1,-1,-1,-1,-1,-1,-1],"loss_changes":[1.0994198E3,1.8971306E2,3.463169E2,1.8569635E2,2.8665186E3,1.7811615E2,5.1450928E1,4.159259E1,1.0438489E2,4.7192334E2,6.4984875E2,3.0836914E1,1.6279526E3,5.1163483E1,9.771973E0,7.3437965E1,3.6389633E1,2.0570354E1,6.7465E1,8.950012E0,1.0972949E2,9.7138855E1,2.6220378E3,3.9785098E2,7.2238464E0,4.1766663E2,2.1442438E2,2.7004333E1,2.3399223E1,9.093658E0,8.718452E0,1.0168915E1,3.1590042E0,1.3301305E1,0E0,2.1036903E1,5.713044E1,1.209776E2,1.7114838E1,0E0,4.8812866E-1,6.3796387E1,3.365692E1,4.8628532E1,3.5311584E1,2.4465894E2,8.7442224E2,6.409107E0,0E0,5.464758E0,3.937622E0,6.4176025E0,1.2352368E2,2.0930695E1,1.7334854E3,1.4046765E2,2.702716E1,1.1004768E1,1.7682646E1,3.4258247E1,7.063904E-1,1.1642039E1,5.791054E0,0E0,0E0,0E0,0E0,0E0,0E0,0E0,0E0,0E0,0E0,0E0,0E0,0E0,0E0,0E0,0E0,0E0,0E0,0E0,0E0,0E0,0E0,0E0,0E0,0E0,0E0,0E0,0E0,0E0,0E0,0E0,0E0,0E0,0E0,0E0,0E0,0E0,0E0,0E0,0E0,0E0,0E0,0E0,0E0,0E0,0E0,0E0,0E0,0E0,0E0,0E0,0E0,0E0,0E0,0E0,0E0,0E0,0E0],"parents":[2147483647,0,0,1,1,2,2,3,3,4,4,5,5,6,6,7,7,8,8,9,9,10,10,11,11,12,12,13,13,14,14,15,15,16,16,17,17,18,18,19,19,20,20,21,21,22,22,23,23,24,24,25,25,26,26,27,27,28,28,29,29,30,30,31,31,32,32,33,33,35,35,36,36,37,37,38,38,40,40,41,41,42,42,43,43,44,44,45,45,46,46,47,47,49,49,50,50,51,51,52,52,53,53,54,54,55,55,56,56,57,57,58,58,59,59,60,60,61,61,62,62],"right_children":[2,4,6,8,10,12,14,16,18,20,22,24,26,28,30,32,34,36,38,40,42,44,46,48,50,52,54,56,58,60,62,64,66,68,-1,70,72,74,76,-1,78,80,82,84,86,88,90,92,-1,94,96,98,100,102,104,106,108,110,112,114,116,118,120,-1,-1,-1,-1,-1,-1,-1,-1,-1,-1,-1,-1,-1,-1,-1,-1,-1,-1,-1,-1,-1,-1,-1,-1,-1,-1,-1,-1,-1,-1,-1,-1,-1,-1,-1,-1,-1,-1,-1,-1,-1,-1,-1,-1,-1,-1,-1,-1,-1,-1,-1,-1,-1,-1,-1,-1,-1,-1],"split_conditions":[4.672131E-1,5.106071E-7,8.770492E-1,3.9459374E-5,1.1110196E-2,2.3351909E-6,9.918033E-1,5.626609E-6,1.22950815E-1,1.3934426E-1,1.1112872E-2,1.1108635E-2,1.9398639E-3,3.0168751E-3,9.048209E-3,4.5600018E-8,3.3853914E-5,9.524573E-4,1.6024265E-2,9.016393E-2,2.2518121E-5,1.22950815E-1,2.2221811E-2,1.7670334E-5,5E-1,5.491803E-1,1.9614971E-3,8.450395E-2,9.813783E-3,1.1740136E-2,6.5E0,2.5673351E-8,1.3934426E-1,1.6821409E-3,5.185799E-1,9.1889524E-4,1.8604131E-3,2.0351112E-3,4.0533813E-4,3.484625E-1,2.5595817E-5,2.7049178E-1,2.8688526E-1,1.860318E-3,1.755998E-3,2.8688526E-1,2.2222616E-2,5.804527E-3,2.2514443E0,1.47317555E-2,2.886194E-3,4.8360658E-1,1.0621114E-2,1.5341122E-2,3.919649E-3,7.7252E-2,3.4219697E-2,5.4729164E-2,1.6653493E-1,1.0340985E-2,2.110801E-1,3.0555558E-1,1.367029E-2,-7.253229E-2,1.1861815E-1,3.8313296E-1,6.54133E-1,-3.8332585E-2,4.0927194E-2,-3.35639E-2,9.885667E-3,-2.0804343E-1,-1.536137E-3,-7.406918E-2,5.3775877E-1,-1.0973684E-1,-1.9819455E-1,4.715499E-1,3.935465E-1,8.8969606E-1,1.3611816E0,5.844982E-1,8.94041E-1,-8.5710675E-2,1.3880122E-2,-1.7776212E-1,-1.01822786E-1,4.890979E-1,1.0325242E0,-1.5701467E-1,1.5445301E-2,-1.1738696E-1,-2.5026596E-1,-7.374736E-2,-1.9406058E-1,-1.9154258E-1,-2.4144134E-1,5.319372E-1,9.6985143E-1,2.9941943E0,9.8446846E-1,-1.1584865E-1,-2.1632822E-1,1.427168E0,-4.8390385E-2,-2.2675586E-1,7.033244E-2,-2.4112467E-1,-8.9310445E-2,-1.6587969E-2,-1.9660202E-1,1.0160989E-1,-7.0154496E-2,-2.7225885E-1,6.591405E-4,-2.703054E-1,-9.592051E-3,2.300988E-1,-2.3684897E-1,-3.2528542E-2,-2.0472601E-1],"split_indices":[6,4,6,3,4,7,6,3,6,6,4,4,7,5,5,3,3,3,7,6,2,6,4,4,6,6,7,2,7,1,0,5,6,5,0,3,3,7,1,0,2,6,6,3,3,6,4,1,0,2,5,6,1,2,7,2,1,4,4,3,1,4,3,0,0,0,0,0,0,0,0,0,0,0,0,0,0,0,0,0,0,0,0,0,0,0,0,0,0,0,0,0,0,0,0,0,0,0,0,0,0,0,0,0,0,0,0,0,0,0,0,0,0,0,0,0,0,0,0,0,0],"split_type":[0,0,0,0,0,0,0,0,0,0,0,0,0,0,0,0,0,0,0,0,0,0,0,0,0,0,0,0,0,0,0,0,0,0,0,0,0,0,0,0,0,0,0,0,0,0,0,0,0,0,0,0,0,0,0,0,0,0,0,0,0,0,0,0,0,0,0,0,0,0,0,0,0,0,0,0,0,0,0,0,0,0,0,0,0,0,0,0,0,0,0,0,0,0,0,0,0,0,0,0,0,0,0,0,0,0,0,0,0,0,0,0,0,0,0,0,0,0,0,0,0],"sum_hessian":[1.09375734E5,9.476893E4,1.4606807E4,9.482215E3,8.528671E4,1.1440109E4,3.166697E3,1.810948E3,7.6712666E3,8.68731E2,8.4417984E4,1.1246254E3,1.0315484E4,2.268687E3,8.980101E2,3.6698233E2,1.4439657E3,4.6193975E3,3.0518691E3,5.2650574E2,3.4222525E2,4.4389946E3,7.997899E4,3.0015125E2,8.244741E2,5.630539E1,1.0259179E4,1.4179844E3,8.5070264E2,6.5750793E2,2.4050214E2,3.3427652E2,3.2705803E1,1.4311985E3,1.2767301E1,4.105368E3,5.1402936E2,2.1982544E3,8.536148E2,3.6935257E2,1.5715317E2,1.5535687E2,1.8686838E2,2.1605847E3,2.27841E3,8.3206006E2,7.914693E4,2.9472723E2,5.4240184E0,1.3888007E2,6.8559406E2,3.5437817E1,2.0867573E1,9.309385E2,9.32824E3,6.5793945E2,7.600449E2,2.2279965E2,6.2790295E2,1.9548686E2,4.6202103E2,1.7563215E1,2.2293892E2,2.6604424E1,3.076721E2,1.2060761E1,2.0645042E1,2.2547638E2,1.205722E3,2.3655403E3,1.7398279E3,1.9160083E2,3.2242853E2,2.1697612E3,2.8493261E1,3.1908582E2,5.34529E2,8.999058E1,6.716258E1,1.15016556E2,4.0340317E1,1.3894807E2,4.7920307E1,1.543126E3,6.1745874E2,1.3260493E3,9.5236066E2,7.490283E2,8.303174E1,2.7399036E3,7.640702E4,2.5696298E2,3.776426E1,7.1320114E1,6.755995E1,4.3302567E2,2.5256839E2,8.291059E0,2.7146759E1,1.6031738E1,4.8358345E0,2.6480862E2,6.661298E2,7.121513E1,9.257025E3,4.482325E2,2.0970695E2,6.314525E2,1.2859239E2,3.6766785E1,1.8603287E2,5.8697865E1,5.6920514E2,1.3621704E2,5.9269833E1,4.610087E2,1.0123297E0,1.0047118E1,7.516097E0,1.9688496E1,2.0325043E2],"tree_param":{"num_deleted":"0","num_feature":"8","num_nodes":"121","size_leaf_vector":"0"}},{"base_weights":[-5.752254E-3,1.2498924E-2,-3.476235E-1,3.9280966E-2,-7.43758E-2,-2.622292E-1,-5.943186E-1,1.7570278E-1,3.0725796E-2,-2.2956643E-1,-3.0927226E-2,-4.5438275E-1,-1.5758994E-1,-6.9080377E-1,-3.9124137E-1,-7.260086E-2,2.0156686E-1,8.0234595E-2,7.976129E-3,-1.07173234E-1,-4.572319E-1,1.8509862E0,-6.1987016E-2,-5.459244E-1,-1.7182192E-1,1.3935126E-1,-2.3992778E-1,-5.0750643E-1,-7.946952E-1,-2.2786069E-1,-5.39957E-1,-7.8479755E-1,-2.561545E-2,1.7202948E-1,3.6355034E-1,-7.180689E-2,8.901847E-2,-7.414778E-2,1.8801145E-2,-2.6796857E-1,1.5191443E0,-5.0949234E-1,-1.6136417E-1,1.6035967E0,2.6758554E0,-5.741053E-1,-2.3271943E-2,-9.8024756E-2,-6.0333467E-1,1.1554157E0,-2.026722E-1,1.0342529E-2,3.1540084E-1,-3.3897093E-1,9.5526345E-2,-8.0440617E-1,1.7032069E-1,-8.4936255E-1,-5.803433E-1,-2.70894E-1,1.1448241E0,7.236941E-1,-5.6237906E-1,-1.0305356E0,-4.8287666E-1,3.1929383E-1,-1.16206E-1,-7.217063E-2,2.0168467E-1,6.7300993E-1,1.09506644E-1,-2.0825109E-2,-1.0783318E0,1.2480799E0,8.739969E-2,1.9285154E-1,-9.6892364E-2,1.4151291E0,4.653819E-3,-1.6692892E-1,-4.8585656E-1,1.3740176E0,1.773607E0,-4.3503582E-1,-6.6263276E-1,3.9412084E-1,-3.9924622E-1,1.6671083E0,1.3099757E0,3.2247832E0,1.3105578E0,-4.085842E-1,-6.829398E-1,2.6542227E0,-6.5246366E-2,-2.0377284E-1,5.6313124E0,-1.6699451E-1,-6.3723606E-1,-3.0933842E-1,2.0824075E0,1.0238595E-2,-3.909902E-1,-1.3782772E-2,2.1072953E0,1.3776219E0,2.3809244E-1,-4.9755672E-1,-1.22362755E-1,3.1224793E-1,-2.0137966E-1,-6.998511E-1,-9.0190345E-1,4.480808E-1,-2.4032012E-1,-8.960545E-1,-6.561611E-1,2.0241761E0,-6.2406194E-1,-3.321526E-1,4.4892007E-1,2.4739249E0,-3.258414E-1,1.637665E-1,1.2605755E0,-4.3161073E-1,-6.9474334E-1],"categories":[],"categories_nodes":[],"categories_segments":[],"categories_sizes":[],"default_left":[1,1,1,1,1,1,1,1,1,1,1,1,1,1,1,1,1,1,1,1,1,1,1,1,1,1,1,1,1,1,1,1,1,1,1,1,1,1,1,1,1,1,1,1,1,1,1,1,1,1,1,1,1,1,1,1,1,1,1,1,1,1,1,0,0,0,0,0,0,0,0,0,0,0,0,0,0,0,0,0,0,0,0,0,0,0,0,0,0,0,0,0,0,0,0,0,0,0,0,0,0,0,0,0,0,0,0,0,0,0,0,0,0,0,0,0,0,0,0,0,0,0,0,0,0,0,0],"id":12,"left_children":[1,3,5,7,9,11,13,15,17,19,21,23,25,27,29,31,33,35,37,39,41,43,45,47,49,51,53,55,57,59,61,63,65,67,69,71,73,75,77,79,81,83,85,87,89,91,93,95,97,99,101,103,105,107,109,111,113,115,117,119,121,123,125,-1,-1,-1,-1,-1,-1,-1,-1,-1,-1,-1,-1,-1,-1,-1,-1,-1,-1,-1,-1,-1,-1,-1,-1,-1,-1,-1,-1,-1,-1,-1,-1,-1,-1,-1,-1,-1,-1,-1,-1,-1,-1,-1,-1,-1,-1,-1,-1,-1,-1,-1,-1,-1,-1,-1,-1,-1,-1,-1,-1,-1,-1,-1,-1],"loss_changes":[6.6935443E2,2.369512E2,1.14377686E2,9.084581E1,1.618054E2,8.117108E1,2.710727E1,2.9513687E1,8.250194E1,1.462102E2,1.0960793E3,3.6740448E1,6.403055E1,1.7609497E1,1.0867569E1,1.4504615E1,1.984259E1,3.0805832E1,4.4619545E1,8.934453E2,2.8289337E1,5.783899E1,3.6571802E2,2.7586487E1,1.456171E1,1.291691E1,6.813084E1,6.955716E1,6.560852E0,1.314466E1,7.0956497E0,1.4929676E0,1.27923155E1,2.5509705E1,5.029747E1,6.4640594E1,4.0798584E1,3.5516438E1,8.760017E2,6.8355515E1,8.915649E0,1.7487793E1,3.6748997E1,2.2304688E0,4.7298035E1,2.3075806E1,1.9277059E3,7.587659E1,1.3987579E1,1.1639641E1,1.3749274E1,1.6689747E1,1.9424904E1,5.4304886E1,3.0176498E1,1.8158875E0,1.2186197E1,3.7192688E0,1.5551094E1,9.474134E0,1.4089475E1,1.1622612E0,3.7247467E0,0E0,0E0,0E0,0E0,0E0,0E0,0E0,0E0,0E0,0E0,0E0,0E0,0E0,0E0,0E0,0E0,0E0,0E0,0E0,0E0,0E0,0E0,0E0,0E0,0E0,0E0,0E0,0E0,0E0,0E0,0E0,0E0,0E0,0E0,0E0,0E0,0E0,0E0,0E0,0E0,0E0,0E0,0E0,0E0,0E0,0E0,0E0,0E0,0E0,0E0,0E0,0E0,0E0,0E0,0E0,0E0,0E0,0E0,0E0,0E0,0E0,0E0,0E0,0E0],"parents":[2147483647,0,0,1,1,2,2,3,3,4,4,5,5,6,6,7,7,8,8,9,9,10,10,11,11,12,12,13,13,14,14,15,15,16,16,17,17,18,18,19,19,20,20,21,21,22,22,23,23,24,24,25,25,26,26,27,27,28,28,29,29,30,30,31,31,32,32,33,33,34,34,35,35,36,36,37,37,38,38,39,39,40,40,41,41,42,42,43,43,44,44,45,45,46,46,47,47,48,48,49,49,50,50,51,51,52,52,53,53,54,54,55,55,56,56,57,57,58,58,59,59,60,60,61,61,62,62],